#pragma once
#include <cstdarg>
namespace Eloquent {
    namespace ML {
        namespace Port {
            class RandomForest {
                public:
                    /**
                    * Predict class for features vector
                    */
                    int predict(float *x) {
                        uint8_t votes[6] = { 0 };
                        // tree #1
                        if (x[119] <= 391.0) {
                            if (x[9] <= -0.13499999791383743) {
                                if (x[29] <= 0.11500000394880772) {
                                    votes[3] += 1;
                                }

                                else {
                                    if (x[314] <= 121.39999771118164) {
                                        votes[0] += 1;
                                    }

                                    else {
                                        votes[1] += 1;
                                    }
                                }
                            }

                            else {
                                if (x[66] <= -0.7650000154972076) {
                                    if (x[181] <= -7.995000123977661) {
                                        if (x[416] <= -0.4050000011920929) {
                                            votes[1] += 1;
                                        }

                                        else {
                                            if (x[634] <= 2.5299999713897705) {
                                                votes[0] += 1;
                                            }

                                            else {
                                                votes[5] += 1;
                                            }
                                        }
                                    }

                                    else {
                                        if (x[198] <= 0.07500000111758709) {
                                            if (x[680] <= -0.1850000023841858) {
                                                if (x[271] <= -26.614999055862427) {
                                                    votes[1] += 1;
                                                }

                                                else {
                                                    votes[5] += 1;
                                                }
                                            }

                                            else {
                                                votes[3] += 1;
                                            }
                                        }

                                        else {
                                            votes[0] += 1;
                                        }
                                    }
                                }

                                else {
                                    votes[5] += 1;
                                }
                            }
                        }

                        else {
                            if (x[134] <= 0.19999999552965164) {
                                if (x[64] <= 0.23499999195337296) {
                                    if (x[101] <= 0.6900000274181366) {
                                        votes[4] += 1;
                                    }

                                    else {
                                        votes[2] += 1;
                                    }
                                }

                                else {
                                    votes[4] += 1;
                                }
                            }

                            else {
                                votes[4] += 1;
                            }
                        }

                        // tree #2
                        if (x[280] <= 907.0) {
                            if (x[1] <= 0.11500000208616257) {
                                if (x[604] <= 0.050000001676380634) {
                                    votes[3] += 1;
                                }

                                else {
                                    votes[0] += 1;
                                }
                            }

                            else {
                                if (x[52] <= -0.7700000107288361) {
                                    if (x[311] <= -0.7950000166893005) {
                                        if (x[428] <= 0.02500000037252903) {
                                            votes[1] += 1;
                                        }

                                        else {
                                            if (x[397] <= -10.770000457763672) {
                                                votes[0] += 1;
                                            }

                                            else {
                                                if (x[565] <= 15.59499967098236) {
                                                    votes[3] += 1;
                                                }

                                                else {
                                                    votes[1] += 1;
                                                }
                                            }
                                        }
                                    }

                                    else {
                                        if (x[282] <= -0.1099999975413084) {
                                            votes[0] += 1;
                                        }

                                        else {
                                            if (x[226] <= -0.009999999776482582) {
                                                if (x[298] <= -23.28499984741211) {
                                                    votes[0] += 1;
                                                }

                                                else {
                                                    votes[1] += 1;
                                                }
                                            }

                                            else {
                                                votes[5] += 1;
                                            }
                                        }
                                    }
                                }

                                else {
                                    if (x[240] <= -0.1600000038743019) {
                                        if (x[252] <= 717.5) {
                                            votes[5] += 1;
                                        }

                                        else {
                                            votes[0] += 1;
                                        }
                                    }

                                    else {
                                        votes[5] += 1;
                                    }
                                }
                            }
                        }

                        else {
                            if (x[120] <= 0.17500000447034836) {
                                if (x[8] <= 0.4949999898672104) {
                                    if (x[495] <= 11.169999837875366) {
                                        votes[2] += 1;
                                    }

                                    else {
                                        votes[4] += 1;
                                    }
                                }

                                else {
                                    votes[4] += 1;
                                }
                            }

                            else {
                                if (x[52] <= 0.9099999964237213) {
                                    votes[2] += 1;
                                }

                                else {
                                    votes[4] += 1;
                                }
                            }
                        }

                        // tree #3
                        if (x[101] <= 0.5499999970197678) {
                            if (x[117] <= 41.53499984741211) {
                                if (x[50] <= 0.1850000023841858) {
                                    if (x[314] <= -65.58499908447266) {
                                        if (x[347] <= 6.319999814033508) {
                                            votes[5] += 1;
                                        }

                                        else {
                                            votes[0] += 1;
                                        }
                                    }

                                    else {
                                        votes[3] += 1;
                                    }
                                }

                                else {
                                    if (x[86] <= -0.22500000149011612) {
                                        votes[0] += 1;
                                    }

                                    else {
                                        if (x[639] <= -0.10999999940395355) {
                                            votes[1] += 1;
                                        }

                                        else {
                                            if (x[73] <= -1.0449999868869781) {
                                                votes[0] += 1;
                                            }

                                            else {
                                                if (x[326] <= -16.325000286102295) {
                                                    votes[5] += 1;
                                                }

                                                else {
                                                    votes[1] += 1;
                                                }
                                            }
                                        }
                                    }
                                }
                            }

                            else {
                                if (x[153] <= -15.440000534057617) {
                                    if (x[325] <= -1.75) {
                                        votes[3] += 1;
                                    }

                                    else {
                                        votes[0] += 1;
                                    }
                                }

                                else {
                                    votes[5] += 1;
                                }
                            }
                        }

                        else {
                            if (x[603] <= 0.054999999701976776) {
                                if (x[389] <= -21.179999351501465) {
                                    votes[2] += 1;
                                }

                                else {
                                    if (x[125] <= 113.01000213623047) {
                                        votes[4] += 1;
                                    }

                                    else {
                                        votes[2] += 1;
                                    }
                                }
                            }

                            else {
                                if (x[285] <= -40.470001220703125) {
                                    votes[4] += 1;
                                }

                                else {
                                    if (x[430] <= 1.1050000190734863) {
                                        votes[2] += 1;
                                    }

                                    else {
                                        votes[4] += 1;
                                    }
                                }
                            }
                        }

                        // tree #4
                        if (x[546] <= 1763.0) {
                            if (x[51] <= -0.24499999731779099) {
                                if (x[83] <= 33.6899995803833) {
                                    if (x[98] <= 291.0) {
                                        votes[3] += 1;
                                    }

                                    else {
                                        votes[0] += 1;
                                    }
                                }

                                else {
                                    votes[0] += 1;
                                }
                            }

                            else {
                                if (x[142] <= 0.08500000089406967) {
                                    if (x[38] <= -0.8949999809265137) {
                                        if (x[499] <= -0.29999999701976776) {
                                            votes[3] += 1;
                                        }

                                        else {
                                            if (x[494] <= -2.715000033378601) {
                                                if (x[390] <= -0.09499931335449219) {
                                                    votes[0] += 1;
                                                }

                                                else {
                                                    votes[3] += 1;
                                                }
                                            }

                                            else {
                                                if (x[313] <= -6.53000020980835) {
                                                    votes[5] += 1;
                                                }

                                                else {
                                                    if (x[129] <= -0.9800000190734863) {
                                                        if (x[266] <= 789.5) {
                                                            votes[0] += 1;
                                                        }

                                                        else {
                                                            votes[5] += 1;
                                                        }
                                                    }

                                                    else {
                                                        votes[1] += 1;
                                                    }
                                                }
                                            }
                                        }
                                    }

                                    else {
                                        votes[5] += 1;
                                    }
                                }

                                else {
                                    if (x[694] <= -0.16499999910593033) {
                                        votes[1] += 1;
                                    }

                                    else {
                                        if (x[411] <= 74.52499663829803) {
                                            votes[3] += 1;
                                        }

                                        else {
                                            votes[5] += 1;
                                        }
                                    }
                                }
                            }
                        }

                        else {
                            if (x[113] <= 0.13499999791383743) {
                                if (x[66] <= 0.4050000086426735) {
                                    votes[4] += 1;
                                }

                                else {
                                    votes[2] += 1;
                                }
                            }

                            else {
                                if (x[407] <= 0.14499999955296516) {
                                    if (x[370] <= 277.920006275177) {
                                        votes[4] += 1;
                                    }

                                    else {
                                        votes[2] += 1;
                                    }
                                }

                                else {
                                    if (x[626] <= 0.9699999988079071) {
                                        votes[2] += 1;
                                    }

                                    else {
                                        votes[4] += 1;
                                    }
                                }
                            }
                        }

                        // tree #5
                        if (x[483] <= 1560.0) {
                            if (x[75] <= 21.024999618530273) {
                                if (x[43] <= 0.024999999441206455) {
                                    votes[3] += 1;
                                }

                                else {
                                    if (x[44] <= -0.16499999910593033) {
                                        if (x[123] <= -133.30499267578125) {
                                            votes[3] += 1;
                                        }

                                        else {
                                            votes[0] += 1;
                                        }
                                    }

                                    else {
                                        if (x[290] <= -1.1399999856948853) {
                                            if (x[494] <= 30.72999906539917) {
                                                votes[0] += 1;
                                            }

                                            else {
                                                votes[5] += 1;
                                            }
                                        }

                                        else {
                                            if (x[8] <= 0.35500000417232513) {
                                                if (x[430] <= -1.2400000095367432) {
                                                    votes[5] += 1;
                                                }

                                                else {
                                                    votes[1] += 1;
                                                }
                                            }

                                            else {
                                                votes[5] += 1;
                                            }
                                        }
                                    }
                                }
                            }

                            else {
                                if (x[620] <= -1.5550000071525574) {
                                    if (x[338] <= -0.32999999821186066) {
                                        votes[0] += 1;
                                    }

                                    else {
                                        votes[3] += 1;
                                    }
                                }

                                else {
                                    if (x[544] <= 72.26499700546265) {
                                        if (x[538] <= 8.515000104904175) {
                                            votes[5] += 1;
                                        }

                                        else {
                                            votes[3] += 1;
                                        }
                                    }

                                    else {
                                        votes[0] += 1;
                                    }
                                }
                            }
                        }

                        else {
                            if (x[519] <= 0.10500000044703484) {
                                if (x[106] <= 0.16499999910593033) {
                                    if (x[69] <= -28.165000915527344) {
                                        votes[4] += 1;
                                    }

                                    else {
                                        if (x[500] <= 0.9200000166893005) {
                                            votes[4] += 1;
                                        }

                                        else {
                                            votes[2] += 1;
                                        }
                                    }
                                }

                                else {
                                    votes[4] += 1;
                                }
                            }

                            else {
                                if (x[467] <= 13.000000476837158) {
                                    votes[2] += 1;
                                }

                                else {
                                    votes[4] += 1;
                                }
                            }
                        }

                        // tree #6
                        if (x[35] <= 123.0) {
                            if (x[619] <= -1.1050000190734863) {
                                votes[0] += 1;
                            }

                            else {
                                if (x[695] <= -0.16499999910593033) {
                                    if (x[547] <= -0.19500000029802322) {
                                        if (x[249] <= -26.885000228881836) {
                                            if (x[68] <= 121.66999816894531) {
                                                votes[0] += 1;
                                            }

                                            else {
                                                votes[5] += 1;
                                            }
                                        }

                                        else {
                                            if (x[141] <= -0.17500000074505806) {
                                                if (x[632] <= -0.26499999314546585) {
                                                    votes[5] += 1;
                                                }

                                                else {
                                                    votes[0] += 1;
                                                }
                                            }

                                            else {
                                                votes[1] += 1;
                                            }
                                        }
                                    }

                                    else {
                                        if (x[73] <= -0.8600000143051147) {
                                            if (x[587] <= -16.480000019073486) {
                                                votes[1] += 1;
                                            }

                                            else {
                                                votes[3] += 1;
                                            }
                                        }

                                        else {
                                            if (x[146] <= 10.28499984741211) {
                                                if (x[392] <= 1150.5) {
                                                    votes[0] += 1;
                                                }

                                                else {
                                                    votes[1] += 1;
                                                }
                                            }

                                            else {
                                                votes[5] += 1;
                                            }
                                        }
                                    }
                                }

                                else {
                                    if (x[240] <= -0.5349999964237213) {
                                        if (x[643] <= 0.1550000086426735) {
                                            votes[3] += 1;
                                        }

                                        else {
                                            votes[1] += 1;
                                        }
                                    }

                                    else {
                                        votes[5] += 1;
                                    }
                                }
                            }
                        }

                        else {
                            if (x[470] <= 0.08500000089406967) {
                                if (x[592] <= 5.369999885559082) {
                                    if (x[195] <= 171.68999862670898) {
                                        votes[4] += 1;
                                    }

                                    else {
                                        votes[2] += 1;
                                    }
                                }

                                else {
                                    votes[2] += 1;
                                }
                            }

                            else {
                                if (x[460] <= -6.805000066757202) {
                                    votes[4] += 1;
                                }

                                else {
                                    votes[2] += 1;
                                }
                            }
                        }

                        // tree #7
                        if (x[112] <= 369.0) {
                            if (x[58] <= -0.14500000327825546) {
                                if (x[71] <= 0.17000000178813934) {
                                    if (x[440] <= 25.389999389648438) {
                                        if (x[94] <= -1.8299999833106995) {
                                            votes[5] += 1;
                                        }

                                        else {
                                            votes[3] += 1;
                                        }
                                    }

                                    else {
                                        votes[0] += 1;
                                    }
                                }

                                else {
                                    if (x[137] <= 7.779999943450093) {
                                        if (x[208] <= -56.91499900817871) {
                                            if (x[75] <= 42.05000019073486) {
                                                votes[0] += 1;
                                            }

                                            else {
                                                votes[5] += 1;
                                            }
                                        }

                                        else {
                                            votes[0] += 1;
                                        }
                                    }

                                    else {
                                        votes[1] += 1;
                                    }
                                }
                            }

                            else {
                                if (x[243] <= -13.700000286102295) {
                                    if (x[131] <= 32.71500110626221) {
                                        votes[3] += 1;
                                    }

                                    else {
                                        votes[5] += 1;
                                    }
                                }

                                else {
                                    if (x[276] <= -1.1150000095367432) {
                                        if (x[110] <= -52.64500045776367) {
                                            votes[3] += 1;
                                        }

                                        else {
                                            votes[5] += 1;
                                        }
                                    }

                                    else {
                                        if (x[590] <= 0.1250000074505806) {
                                            votes[1] += 1;
                                        }

                                        else {
                                            votes[0] += 1;
                                        }
                                    }
                                }
                            }
                        }

                        else {
                            if (x[489] <= -3.049999952316284) {
                                if (x[640] <= 1.0149999856948853) {
                                    votes[2] += 1;
                                }

                                else {
                                    if (x[356] <= -6.7749998569488525) {
                                        votes[2] += 1;
                                    }

                                    else {
                                        votes[4] += 1;
                                    }
                                }
                            }

                            else {
                                if (x[106] <= 0.11500000022351742) {
                                    if (x[82] <= -21.94499969482422) {
                                        votes[4] += 1;
                                    }

                                    else {
                                        votes[2] += 1;
                                    }
                                }

                                else {
                                    votes[4] += 1;
                                }
                            }
                        }

                        // tree #8
                        if (x[140] <= 460.5) {
                            if (x[188] <= 27.889999389648438) {
                                if (x[257] <= -12.634999513626099) {
                                    if (x[216] <= -11.930000305175781) {
                                        if (x[277] <= -180.2699966430664) {
                                            votes[3] += 1;
                                        }

                                        else {
                                            votes[0] += 1;
                                        }
                                    }

                                    else {
                                        if (x[584] <= -0.9099999964237213) {
                                            votes[3] += 1;
                                        }

                                        else {
                                            if (x[401] <= -0.3199999928474426) {
                                                votes[0] += 1;
                                            }

                                            else {
                                                votes[5] += 1;
                                            }
                                        }
                                    }
                                }

                                else {
                                    if (x[8] <= 0.12999999895691872) {
                                        votes[3] += 1;
                                    }

                                    else {
                                        if (x[407] <= 0.14000000059604645) {
                                            votes[1] += 1;
                                        }

                                        else {
                                            if (x[35] <= 110.0) {
                                                votes[5] += 1;
                                            }

                                            else {
                                                votes[0] += 1;
                                            }
                                        }
                                    }
                                }
                            }

                            else {
                                if (x[397] <= 5.2200000286102295) {
                                    if (x[45] <= -0.5050000101327896) {
                                        if (x[319] <= 94.54500198364258) {
                                            votes[0] += 1;
                                        }

                                        else {
                                            votes[3] += 1;
                                        }
                                    }

                                    else {
                                        votes[5] += 1;
                                    }
                                }

                                else {
                                    if (x[1] <= 0.07500000298023224) {
                                        votes[3] += 1;
                                    }

                                    else {
                                        if (x[323] <= -0.39499999955296516) {
                                            if (x[330] <= -0.8050000071525574) {
                                                votes[0] += 1;
                                            }

                                            else {
                                                votes[1] += 1;
                                            }
                                        }

                                        else {
                                            votes[5] += 1;
                                        }
                                    }
                                }
                            }
                        }

                        else {
                            if (x[181] <= 37.170000076293945) {
                                if (x[337] <= -0.3349999934434891) {
                                    votes[2] += 1;
                                }

                                else {
                                    if (x[645] <= 0.1850000023841858) {
                                        votes[4] += 1;
                                    }

                                    else {
                                        votes[2] += 1;
                                    }
                                }
                            }

                            else {
                                if (x[121] <= -0.04000000283122063) {
                                    votes[2] += 1;
                                }

                                else {
                                    votes[4] += 1;
                                }
                            }
                        }

                        // tree #9
                        if (x[252] <= 818.5) {
                            if (x[171] <= -1.2300000190734863) {
                                if (x[44] <= -0.19999999552965164) {
                                    if (x[11] <= 8.089999914169312) {
                                        votes[0] += 1;
                                    }

                                    else {
                                        votes[3] += 1;
                                    }
                                }

                                else {
                                    votes[5] += 1;
                                }
                            }

                            else {
                                if (x[78] <= 0.17000000178813934) {
                                    if (x[41] <= -20.385000228881836) {
                                        if (x[116] <= -11.049999237060547) {
                                            votes[5] += 1;
                                        }

                                        else {
                                            votes[0] += 1;
                                        }
                                    }

                                    else {
                                        if (x[603] <= -0.3200000002980232) {
                                            votes[0] += 1;
                                        }

                                        else {
                                            votes[3] += 1;
                                        }
                                    }
                                }

                                else {
                                    if (x[449] <= -0.024999999441206455) {
                                        if (x[623] <= 1806.5) {
                                            if (x[33] <= 7.235000371932983) {
                                                votes[5] += 1;
                                            }

                                            else {
                                                votes[3] += 1;
                                            }
                                        }

                                        else {
                                            if (x[597] <= -0.32500000298023224) {
                                                votes[0] += 1;
                                            }

                                            else {
                                                votes[1] += 1;
                                            }
                                        }
                                    }

                                    else {
                                        if (x[107] <= -0.10999999940395355) {
                                            votes[0] += 1;
                                        }

                                        else {
                                            votes[5] += 1;
                                        }
                                    }
                                }
                            }
                        }

                        else {
                            if (x[496] <= -2.930000066757202) {
                                if (x[590] <= -0.22999999672174454) {
                                    votes[4] += 1;
                                }

                                else {
                                    votes[2] += 1;
                                }
                            }

                            else {
                                if (x[694] <= 0.054999999701976776) {
                                    votes[4] += 1;
                                }

                                else {
                                    if (x[134] <= 0.3349999934434891) {
                                        votes[2] += 1;
                                    }

                                    else {
                                        votes[4] += 1;
                                    }
                                }
                            }
                        }

                        // tree #10
                        if (x[381] <= 0.6800000071525574) {
                            if (x[44] <= -0.1900000050663948) {
                                if (x[108] <= -0.9550000131130219) {
                                    if (x[64] <= 0.06499999854713678) {
                                        votes[3] += 1;
                                    }

                                    else {
                                        votes[0] += 1;
                                    }
                                }

                                else {
                                    votes[0] += 1;
                                }
                            }

                            else {
                                if (x[188] <= 2.2599997520446777) {
                                    if (x[646] <= -0.29500000178813934) {
                                        if (x[492] <= 0.019999995827674866) {
                                            votes[3] += 1;
                                        }

                                        else {
                                            votes[1] += 1;
                                        }
                                    }

                                    else {
                                        if (x[388] <= -0.5850000083446503) {
                                            votes[1] += 1;
                                        }

                                        else {
                                            votes[5] += 1;
                                        }
                                    }
                                }

                                else {
                                    if (x[384] <= 34.239999771118164) {
                                        if (x[139] <= -104.8900032043457) {
                                            votes[1] += 1;
                                        }

                                        else {
                                            if (x[286] <= -186.86000061035156) {
                                                votes[3] += 1;
                                            }

                                            else {
                                                votes[5] += 1;
                                            }
                                        }
                                    }

                                    else {
                                        votes[0] += 1;
                                    }
                                }
                            }
                        }

                        else {
                            if (x[652] <= 0.06000000052154064) {
                                if (x[594] <= -4.365000009536743) {
                                    votes[2] += 1;
                                }

                                else {
                                    if (x[258] <= 22.094999313354492) {
                                        votes[4] += 1;
                                    }

                                    else {
                                        if (x[622] <= -2.3149999380111694) {
                                            votes[4] += 1;
                                        }

                                        else {
                                            votes[2] += 1;
                                        }
                                    }
                                }
                            }

                            else {
                                if (x[169] <= 0.23499999940395355) {
                                    if (x[681] <= 0.24000000953674316) {
                                        votes[2] += 1;
                                    }

                                    else {
                                        votes[4] += 1;
                                    }
                                }

                                else {
                                    votes[4] += 1;
                                }
                            }
                        }

                        // tree #11
                        if (x[210] <= 686.5) {
                            if (x[36] <= 0.11500000394880772) {
                                if (x[465] <= -0.6949999928474426) {
                                    votes[3] += 1;
                                }

                                else {
                                    votes[0] += 1;
                                }
                            }

                            else {
                                if (x[618] <= -0.29500000178813934) {
                                    if (x[58] <= -0.0800000000745058) {
                                        votes[0] += 1;
                                    }

                                    else {
                                        if (x[216] <= -4.939999759197235) {
                                            votes[1] += 1;
                                        }

                                        else {
                                            votes[5] += 1;
                                        }
                                    }
                                }

                                else {
                                    if (x[330] <= -0.07500000111758709) {
                                        if (x[641] <= -2.224999960511923) {
                                            votes[0] += 1;
                                        }

                                        else {
                                            votes[1] += 1;
                                        }
                                    }

                                    else {
                                        if (x[52] <= -0.824999988079071) {
                                            if (x[125] <= 24.47499942779541) {
                                                if (x[365] <= 0.2500000074505806) {
                                                    votes[5] += 1;
                                                }

                                                else {
                                                    votes[3] += 1;
                                                }
                                            }

                                            else {
                                                votes[0] += 1;
                                            }
                                        }

                                        else {
                                            if (x[261] <= -0.5349999964237213) {
                                                votes[1] += 1;
                                            }

                                            else {
                                                votes[5] += 1;
                                            }
                                        }
                                    }
                                }
                            }
                        }

                        else {
                            if (x[638] <= 0.10500000044703484) {
                                if (x[344] <= 0.06499999947845936) {
                                    votes[4] += 1;
                                }

                                else {
                                    if (x[99] <= 0.33500000461935997) {
                                        votes[2] += 1;
                                    }

                                    else {
                                        votes[4] += 1;
                                    }
                                }
                            }

                            else {
                                if (x[578] <= 25.514999866485596) {
                                    if (x[696] <= 1.0850000381469727) {
                                        votes[2] += 1;
                                    }

                                    else {
                                        votes[4] += 1;
                                    }
                                }

                                else {
                                    votes[4] += 1;
                                }
                            }
                        }

                        // tree #12
                        if (x[637] <= 2055.5) {
                            if (x[174] <= 42.14500045776367) {
                                if (x[243] <= -9.429999947547913) {
                                    if (x[124] <= 19.929999828338623) {
                                        votes[3] += 1;
                                    }

                                    else {
                                        if (x[494] <= 12.295000076293945) {
                                            votes[0] += 1;
                                        }

                                        else {
                                            votes[3] += 1;
                                        }
                                    }
                                }

                                else {
                                    if (x[418] <= 2.1649999618530273) {
                                        if (x[366] <= -0.4949999898672104) {
                                            if (x[38] <= -0.9050000011920929) {
                                                votes[0] += 1;
                                            }

                                            else {
                                                votes[1] += 1;
                                            }
                                        }

                                        else {
                                            if (x[514] <= -0.9850000143051147) {
                                                votes[5] += 1;
                                            }

                                            else {
                                                votes[3] += 1;
                                            }
                                        }
                                    }

                                    else {
                                        if (x[155] <= 0.42499999701976776) {
                                            votes[1] += 1;
                                        }

                                        else {
                                            votes[5] += 1;
                                        }
                                    }
                                }
                            }

                            else {
                                if (x[570] <= -1.1149999499320984) {
                                    votes[0] += 1;
                                }

                                else {
                                    if (x[204] <= 0.45000000298023224) {
                                        votes[5] += 1;
                                    }

                                    else {
                                        if (x[452] <= -30.55000066757202) {
                                            votes[5] += 1;
                                        }

                                        else {
                                            votes[3] += 1;
                                        }
                                    }
                                }
                            }
                        }

                        else {
                            if (x[134] <= 0.13999999687075615) {
                                if (x[554] <= 0.019999999552965164) {
                                    if (x[421] <= -0.2049999926239252) {
                                        votes[2] += 1;
                                    }

                                    else {
                                        votes[4] += 1;
                                    }
                                }

                                else {
                                    votes[2] += 1;
                                }
                            }

                            else {
                                if (x[349] <= 86.30499839782715) {
                                    votes[4] += 1;
                                }

                                else {
                                    votes[2] += 1;
                                }
                            }
                        }

                        // tree #13
                        if (x[182] <= 596.0) {
                            if (x[1] <= 0.11500000208616257) {
                                if (x[66] <= -0.8599999845027924) {
                                    votes[3] += 1;
                                }

                                else {
                                    votes[0] += 1;
                                }
                            }

                            else {
                                if (x[79] <= -0.22499999403953552) {
                                    if (x[54] <= 0.7049999237060547) {
                                        votes[0] += 1;
                                    }

                                    else {
                                        votes[5] += 1;
                                    }
                                }

                                else {
                                    if (x[124] <= 29.204999923706055) {
                                        if (x[249] <= -29.05500030517578) {
                                            if (x[383] <= -110.44499588012695) {
                                                votes[5] += 1;
                                            }

                                            else {
                                                votes[0] += 1;
                                            }
                                        }

                                        else {
                                            votes[1] += 1;
                                        }
                                    }

                                    else {
                                        if (x[145] <= 7.170000076293945) {
                                            votes[0] += 1;
                                        }

                                        else {
                                            if (x[244] <= 141.75) {
                                                votes[5] += 1;
                                            }

                                            else {
                                                votes[1] += 1;
                                            }
                                        }
                                    }
                                }
                            }
                        }

                        else {
                            if (x[512] <= 0.10500000044703484) {
                                if (x[510] <= -2.715000033378601) {
                                    if (x[172] <= -4.544999837875366) {
                                        votes[4] += 1;
                                    }

                                    else {
                                        if (x[97] <= 9.735000133514404) {
                                            votes[2] += 1;
                                        }

                                        else {
                                            votes[4] += 1;
                                        }
                                    }
                                }

                                else {
                                    votes[4] += 1;
                                }
                            }

                            else {
                                if (x[120] <= 0.32999999821186066) {
                                    votes[2] += 1;
                                }

                                else {
                                    if (x[400] <= 0.24000000953674316) {
                                        votes[4] += 1;
                                    }

                                    else {
                                        votes[2] += 1;
                                    }
                                }
                            }
                        }

                        // tree #14
                        if (x[542] <= 0.4499999927356839) {
                            if (x[236] <= -31.34000015258789) {
                                if (x[212] <= -0.39499999582767487) {
                                    if (x[302] <= 0.42000000178813934) {
                                        votes[0] += 1;
                                    }

                                    else {
                                        votes[3] += 1;
                                    }
                                }

                                else {
                                    if (x[354] <= -37.71500015258789) {
                                        votes[3] += 1;
                                    }

                                    else {
                                        if (x[95] <= 17.825000286102295) {
                                            if (x[382] <= 145.84500122070312) {
                                                votes[5] += 1;
                                            }

                                            else {
                                                votes[3] += 1;
                                            }
                                        }

                                        else {
                                            votes[0] += 1;
                                        }
                                    }
                                }
                            }

                            else {
                                if (x[29] <= 0.11500000394880772) {
                                    if (x[601] <= -5.2200000286102295) {
                                        votes[0] += 1;
                                    }

                                    else {
                                        votes[3] += 1;
                                    }
                                }

                                else {
                                    if (x[86] <= -0.1550000011920929) {
                                        if (x[516] <= 2.3499999046325684) {
                                            votes[5] += 1;
                                        }

                                        else {
                                            votes[0] += 1;
                                        }
                                    }

                                    else {
                                        if (x[234] <= -1.3550000190734863) {
                                            votes[5] += 1;
                                        }

                                        else {
                                            votes[1] += 1;
                                        }
                                    }
                                }
                            }
                        }

                        else {
                            if (x[694] <= 0.04999999888241291) {
                                if (x[237] <= 227.35499954223633) {
                                    votes[4] += 1;
                                }

                                else {
                                    votes[2] += 1;
                                }
                            }

                            else {
                                if (x[204] <= 0.17999999970197678) {
                                    if (x[149] <= 0.004999999888241291) {
                                        votes[2] += 1;
                                    }

                                    else {
                                        if (x[40] <= -5.244999885559082) {
                                            votes[2] += 1;
                                        }

                                        else {
                                            votes[4] += 1;
                                        }
                                    }
                                }

                                else {
                                    votes[4] += 1;
                                }
                            }
                        }

                        // tree #15
                        if (x[486] <= 0.4450000021606684) {
                            if (x[37] <= -0.10500000044703484) {
                                if (x[234] <= -0.9650000035762787) {
                                    if (x[131] <= 252.89999389648438) {
                                        if (x[228] <= -110.96499633789062) {
                                            votes[3] += 1;
                                        }

                                        else {
                                            votes[0] += 1;
                                        }
                                    }

                                    else {
                                        votes[5] += 1;
                                    }
                                }

                                else {
                                    if (x[160] <= -75.07499980926514) {
                                        votes[0] += 1;
                                    }

                                    else {
                                        votes[3] += 1;
                                    }
                                }
                            }

                            else {
                                if (x[278] <= -37.045000076293945) {
                                    if (x[282] <= -0.16500000283122063) {
                                        votes[3] += 1;
                                    }

                                    else {
                                        votes[5] += 1;
                                    }
                                }

                                else {
                                    if (x[75] <= 50.11000061035156) {
                                        if (x[31] <= -0.9850000143051147) {
                                            if (x[652] <= -0.13000000268220901) {
                                                if (x[91] <= 267.0) {
                                                    votes[5] += 1;
                                                }

                                                else {
                                                    votes[0] += 1;
                                                }
                                            }

                                            else {
                                                votes[3] += 1;
                                            }
                                        }

                                        else {
                                            if (x[8] <= -0.09999999403953552) {
                                                votes[0] += 1;
                                            }

                                            else {
                                                votes[1] += 1;
                                            }
                                        }
                                    }

                                    else {
                                        votes[5] += 1;
                                    }
                                }
                            }
                        }

                        else {
                            if (x[631] <= 0.024999999441206455) {
                                votes[4] += 1;
                            }

                            else {
                                if (x[117] <= -16.664999961853027) {
                                    if (x[230] <= 6.134999990463257) {
                                        votes[4] += 1;
                                    }

                                    else {
                                        votes[2] += 1;
                                    }
                                }

                                else {
                                    if (x[304] <= 1.1850000023841858) {
                                        if (x[244] <= -46.665000915527344) {
                                            votes[4] += 1;
                                        }

                                        else {
                                            if (x[234] <= 0.7949999868869781) {
                                                votes[4] += 1;
                                            }

                                            else {
                                                votes[2] += 1;
                                            }
                                        }
                                    }

                                    else {
                                        if (x[357] <= 1236.0) {
                                            votes[4] += 1;
                                        }

                                        else {
                                            votes[2] += 1;
                                        }
                                    }
                                }
                            }
                        }

                        // return argmax of votes
                        uint8_t classIdx = 0;
                        float maxVotes = votes[0];

                        for (uint8_t i = 1; i < 6; i++) {
                            if (votes[i] > maxVotes) {
                                classIdx = i;
                                maxVotes = votes[i];
                            }
                        }

                        return classIdx;
                    }

                    /**
                    * Predict readable class name
                    */
                    const char* predictLabel(float *x) {
                        return idxToLabel(predict(x));
                    }

                    /**
                    * Convert class idx to readable name
                    */
                    const char* idxToLabel(uint8_t classIdx) {
                        switch (classIdx) {
                            case 0:
                            return "wingardium";
                            case 1:
                            return "avada2";
                            case 2:
                            return "alohomora";
                            case 3:
                            return "przod";
                            case 4:
                            return "lumos";
                            case 5:
                            return "lewo";
                            default:
                            return "Houston we have a problem";
                        }
                    }

                protected:
                };
            }
        }
    }