#pragma once
#include <cstdarg>
namespace Eloquent {
    namespace ML {
        namespace Port {
            class RandomForest {
                public:
                    /**
                    * Predict class for features vector
                    */
                    int predict(float *x) {
                        uint8_t votes[6] = { 0 };
                        // tree #1
                        if (x[119] <= 390.0) {
                            if (x[9] <= -0.054999999701976776) {
                                if (x[29] <= 0.11999999918043613) {
                                    votes[0] += 1;
                                }

                                else {
                                    if (x[44] <= -0.23499999940395355) {
                                        votes[5] += 1;
                                    }

                                    else {
                                        if (x[192] <= -1.1800000071525574) {
                                            votes[2] += 1;
                                        }

                                        else {
                                            votes[3] += 1;
                                        }
                                    }
                                }
                            }

                            else {
                                if (x[181] <= 42.66499900817871) {
                                    if (x[283] <= -1.4699999690055847) {
                                        if (x[683] <= 3.7549999952316284) {
                                            votes[0] += 1;
                                        }

                                        else {
                                            votes[2] += 1;
                                        }
                                    }

                                    else {
                                        if (x[474] <= -17.334999561309814) {
                                            votes[5] += 1;
                                        }

                                        else {
                                            votes[3] += 1;
                                        }
                                    }
                                }

                                else {
                                    if (x[594] <= 11.014999866485596) {
                                        if (x[99] <= -0.36499999463558197) {
                                            votes[5] += 1;
                                        }

                                        else {
                                            votes[2] += 1;
                                        }
                                    }

                                    else {
                                        votes[3] += 1;
                                    }
                                }
                            }
                        }

                        else {
                            if (x[134] <= 0.19999999552965164) {
                                if (x[82] <= -27.524999618530273) {
                                    if (x[349] <= -11.295000076293945) {
                                        votes[1] += 1;
                                    }

                                    else {
                                        votes[4] += 1;
                                    }
                                }

                                else {
                                    votes[1] += 1;
                                }
                            }

                            else {
                                if (x[421] <= 0.23499999940395355) {
                                    votes[4] += 1;
                                }

                                else {
                                    votes[1] += 1;
                                }
                            }
                        }

                        // tree #2
                        if (x[280] <= 904.5) {
                            if (x[1] <= 0.0949999988079071) {
                                votes[0] += 1;
                            }

                            else {
                                if (x[219] <= -0.48499998450279236) {
                                    if (x[313] <= -56.18499946594238) {
                                        votes[5] += 1;
                                    }

                                    else {
                                        if (x[311] <= -0.5799999982118607) {
                                            votes[3] += 1;
                                        }

                                        else {
                                            votes[5] += 1;
                                        }
                                    }
                                }

                                else {
                                    if (x[375] <= -28.289999961853027) {
                                        if (x[699] <= 2.4449999928474426) {
                                            if (x[699] <= -3.4199999570846558) {
                                                if (x[138] <= 13.759999632835388) {
                                                    votes[3] += 1;
                                                }

                                                else {
                                                    votes[0] += 1;
                                                }
                                            }

                                            else {
                                                votes[2] += 1;
                                            }
                                        }

                                        else {
                                            votes[3] += 1;
                                        }
                                    }

                                    else {
                                        if (x[555] <= -0.39499999582767487) {
                                            if (x[303] <= 0.26499999687075615) {
                                                votes[5] += 1;
                                            }

                                            else {
                                                votes[3] += 1;
                                            }
                                        }

                                        else {
                                            if (x[443] <= 0.26000000536441803) {
                                                votes[2] += 1;
                                            }

                                            else {
                                                votes[5] += 1;
                                            }
                                        }
                                    }
                                }
                            }
                        }

                        else {
                            if (x[603] <= 0.06499999947845936) {
                                if (x[216] <= 80.69000053405762) {
                                    if (x[407] <= -0.8550000116229057) {
                                        votes[1] += 1;
                                    }

                                    else {
                                        votes[4] += 1;
                                    }
                                }

                                else {
                                    votes[1] += 1;
                                }
                            }

                            else {
                                if (x[141] <= 0.45499998331069946) {
                                    votes[1] += 1;
                                }

                                else {
                                    votes[4] += 1;
                                }
                            }
                        }

                        // tree #3
                        if (x[101] <= 0.5900000035762787) {
                            if (x[80] <= -0.9350000023841858) {
                                if (x[50] <= 0.06999999843537807) {
                                    if (x[50] <= -0.14999999850988388) {
                                        votes[2] += 1;
                                    }

                                    else {
                                        votes[0] += 1;
                                    }
                                }

                                else {
                                    if (x[51] <= -0.1599999964237213) {
                                        votes[5] += 1;
                                    }

                                    else {
                                        if (x[470] <= -0.06499999947845936) {
                                            if (x[160] <= -18.130000114440918) {
                                                votes[3] += 1;
                                            }

                                            else {
                                                votes[2] += 1;
                                            }
                                        }

                                        else {
                                            votes[0] += 1;
                                        }
                                    }
                                }
                            }

                            else {
                                if (x[58] <= -0.22500000149011612) {
                                    if (x[616] <= 1747.0) {
                                        votes[2] += 1;
                                    }

                                    else {
                                        votes[5] += 1;
                                    }
                                }

                                else {
                                    if (x[153] <= 20.75) {
                                        votes[3] += 1;
                                    }

                                    else {
                                        if (x[244] <= -47.51499938964844) {
                                            votes[3] += 1;
                                        }

                                        else {
                                            votes[2] += 1;
                                        }
                                    }
                                }
                            }
                        }

                        else {
                            if (x[580] <= -2.1050000190734863) {
                                if (x[416] <= 0.925000011920929) {
                                    if (x[578] <= -9.184999942779541) {
                                        votes[1] += 1;
                                    }

                                    else {
                                        votes[4] += 1;
                                    }
                                }

                                else {
                                    votes[1] += 1;
                                }
                            }

                            else {
                                if (x[316] <= 0.06499999947845936) {
                                    if (x[125] <= 52.39999961853027) {
                                        votes[4] += 1;
                                    }

                                    else {
                                        if (x[33] <= 0.9450000245124102) {
                                            votes[4] += 1;
                                        }

                                        else {
                                            votes[1] += 1;
                                        }
                                    }
                                }

                                else {
                                    if (x[124] <= -29.604999542236328) {
                                        votes[4] += 1;
                                    }

                                    else {
                                        votes[1] += 1;
                                    }
                                }
                            }
                        }

                        // tree #4
                        if (x[546] <= 1754.0) {
                            if (x[31] <= -0.9549999833106995) {
                                if (x[83] <= 31.795000076293945) {
                                    if (x[181] <= 37.7549991607666) {
                                        votes[0] += 1;
                                    }

                                    else {
                                        if (x[525] <= 1524.0) {
                                            if (x[536] <= -3.6600000858306885) {
                                                votes[5] += 1;
                                            }

                                            else {
                                                votes[0] += 1;
                                            }
                                        }

                                        else {
                                            votes[2] += 1;
                                        }
                                    }
                                }

                                else {
                                    if (x[566] <= -4.609999984502792) {
                                        votes[3] += 1;
                                    }

                                    else {
                                        votes[5] += 1;
                                    }
                                }
                            }

                            else {
                                if (x[143] <= -0.7849999964237213) {
                                    if (x[398] <= 49.59000015258789) {
                                        if (x[295] <= -0.3700000047683716) {
                                            votes[5] += 1;
                                        }

                                        else {
                                            if (x[520] <= -0.3449999988079071) {
                                                if (x[266] <= 771.5) {
                                                    votes[2] += 1;
                                                }

                                                else {
                                                    votes[0] += 1;
                                                }
                                            }

                                            else {
                                                votes[2] += 1;
                                            }
                                        }
                                    }

                                    else {
                                        votes[3] += 1;
                                    }
                                }

                                else {
                                    if (x[82] <= -16.539999961853027) {
                                        votes[5] += 1;
                                    }

                                    else {
                                        votes[3] += 1;
                                    }
                                }
                            }
                        }

                        else {
                            if (x[202] <= 23.894999504089355) {
                                if (x[289] <= -0.5350000113248825) {
                                    votes[1] += 1;
                                }

                                else {
                                    if (x[379] <= -0.5400000102818012) {
                                        votes[1] += 1;
                                    }

                                    else {
                                        votes[4] += 1;
                                    }
                                }
                            }

                            else {
                                if (x[78] <= 0.2849999964237213) {
                                    votes[1] += 1;
                                }

                                else {
                                    if (x[227] <= 0.8599999845027924) {
                                        votes[4] += 1;
                                    }

                                    else {
                                        votes[1] += 1;
                                    }
                                }
                            }
                        }

                        // tree #5
                        if (x[483] <= 1553.0) {
                            if (x[310] <= 0.32999999821186066) {
                                if (x[43] <= 0.1249999962747097) {
                                    if (x[45] <= -0.32499999552965164) {
                                        if (x[233] <= 0.5050000101327896) {
                                            votes[0] += 1;
                                        }

                                        else {
                                            votes[5] += 1;
                                        }
                                    }

                                    else {
                                        votes[2] += 1;
                                    }
                                }

                                else {
                                    if (x[9] <= -0.054999999701976776) {
                                        if (x[657] <= 6.984999895095825) {
                                            if (x[267] <= 0.38500000536441803) {
                                                votes[5] += 1;
                                            }

                                            else {
                                                votes[2] += 1;
                                            }
                                        }

                                        else {
                                            votes[2] += 1;
                                        }
                                    }

                                    else {
                                        if (x[373] <= 0.4699999913573265) {
                                            if (x[326] <= -65.89000129699707) {
                                                votes[0] += 1;
                                            }

                                            else {
                                                if (x[338] <= 0.2150000035762787) {
                                                    if (x[608] <= -28.929999351501465) {
                                                        votes[3] += 1;
                                                    }

                                                    else {
                                                        votes[2] += 1;
                                                    }
                                                }

                                                else {
                                                    votes[5] += 1;
                                                }
                                            }
                                        }

                                        else {
                                            votes[3] += 1;
                                        }
                                    }
                                }
                            }

                            else {
                                votes[3] += 1;
                            }
                        }

                        else {
                            if (x[216] <= 36.64999961853027) {
                                if (x[519] <= 0.11499999836087227) {
                                    votes[4] += 1;
                                }

                                else {
                                    votes[1] += 1;
                                }
                            }

                            else {
                                if (x[300] <= -45.07500076293945) {
                                    votes[4] += 1;
                                }

                                else {
                                    votes[1] += 1;
                                }
                            }
                        }

                        // tree #6
                        if (x[35] <= 122.0) {
                            if (x[93] <= 0.054999999701976776) {
                                if (x[110] <= 46.32500076293945) {
                                    if (x[26] <= -0.08999999798834324) {
                                        if (x[682] <= -0.949999988079071) {
                                            if (x[47] <= -27.74000072479248) {
                                                votes[5] += 1;
                                            }

                                            else {
                                                votes[2] += 1;
                                            }
                                        }

                                        else {
                                            votes[5] += 1;
                                        }
                                    }

                                    else {
                                        if (x[317] <= -0.9650000035762787) {
                                            votes[5] += 1;
                                        }

                                        else {
                                            votes[0] += 1;
                                        }
                                    }
                                }

                                else {
                                    if (x[321] <= 33.80999946594238) {
                                        votes[2] += 1;
                                    }

                                    else {
                                        votes[5] += 1;
                                    }
                                }
                            }

                            else {
                                if (x[693] <= 2003.0) {
                                    if (x[586] <= 102.87500381469727) {
                                        votes[3] += 1;
                                    }

                                    else {
                                        votes[2] += 1;
                                    }
                                }

                                else {
                                    votes[5] += 1;
                                }
                            }
                        }

                        else {
                            if (x[106] <= 0.21000000089406967) {
                                if (x[119] <= 417.5) {
                                    if (x[334] <= -2.195000022649765) {
                                        votes[1] += 1;
                                    }

                                    else {
                                        votes[4] += 1;
                                    }
                                }

                                else {
                                    votes[1] += 1;
                                }
                            }

                            else {
                                if (x[323] <= -0.5600000023841858) {
                                    votes[1] += 1;
                                }

                                else {
                                    votes[4] += 1;
                                }
                            }
                        }

                        // tree #7
                        if (x[112] <= 366.0) {
                            if (x[171] <= -1.1800000071525574) {
                                if (x[212] <= -0.3400000035762787) {
                                    if (x[77] <= 226.5) {
                                        votes[0] += 1;
                                    }

                                    else {
                                        if (x[51] <= 0.024999991059303284) {
                                            votes[5] += 1;
                                        }

                                        else {
                                            votes[3] += 1;
                                        }
                                    }
                                }

                                else {
                                    votes[2] += 1;
                                }
                            }

                            else {
                                if (x[12] <= 0.45500000566244125) {
                                    if (x[430] <= -0.9849999845027924) {
                                        if (x[75] <= -16.755000114440918) {
                                            votes[5] += 1;
                                        }

                                        else {
                                            votes[3] += 1;
                                        }
                                    }

                                    else {
                                        if (x[114] <= 0.03000000026077032) {
                                            if (x[131] <= -171.6899995803833) {
                                                votes[0] += 1;
                                            }

                                            else {
                                                votes[5] += 1;
                                            }
                                        }

                                        else {
                                            if (x[236] <= 27.55500030517578) {
                                                votes[3] += 1;
                                            }

                                            else {
                                                votes[2] += 1;
                                            }
                                        }
                                    }
                                }

                                else {
                                    if (x[212] <= 0.09999999776482582) {
                                        if (x[409] <= -1.4150000214576721) {
                                            votes[5] += 1;
                                        }

                                        else {
                                            votes[0] += 1;
                                        }
                                    }

                                    else {
                                        if (x[84] <= 247.0) {
                                            votes[3] += 1;
                                        }

                                        else {
                                            votes[5] += 1;
                                        }
                                    }
                                }
                            }
                        }

                        else {
                            if (x[666] <= 0.044999999925494194) {
                                if (x[97] <= -82.43000030517578) {
                                    votes[1] += 1;
                                }

                                else {
                                    votes[4] += 1;
                                }
                            }

                            else {
                                if (x[106] <= 0.35999999940395355) {
                                    votes[1] += 1;
                                }

                                else {
                                    votes[4] += 1;
                                }
                            }
                        }

                        // tree #8
                        if (x[140] <= 458.0) {
                            if (x[660] <= -0.20499999821186066) {
                                if (x[59] <= -0.9150000214576721) {
                                    if (x[135] <= -0.014999999664723873) {
                                        if (x[533] <= -0.28999999910593033) {
                                            votes[5] += 1;
                                        }

                                        else {
                                            votes[0] += 1;
                                        }
                                    }

                                    else {
                                        votes[5] += 1;
                                    }
                                }

                                else {
                                    if (x[51] <= -0.14499999582767487) {
                                        votes[5] += 1;
                                    }

                                    else {
                                        if (x[128] <= 0.14499999582767487) {
                                            if (x[8] <= 0.1650000074878335) {
                                                votes[0] += 1;
                                            }

                                            else {
                                                if (x[230] <= 129.1500015258789) {
                                                    votes[2] += 1;
                                                }

                                                else {
                                                    votes[3] += 1;
                                                }
                                            }
                                        }

                                        else {
                                            votes[3] += 1;
                                        }
                                    }
                                }
                            }

                            else {
                                if (x[86] <= 0.1849999949336052) {
                                    if (x[213] <= -0.21000000648200512) {
                                        if (x[620] <= 10.954999923706055) {
                                            if (x[89] <= -14.829999923706055) {
                                                votes[5] += 1;
                                            }

                                            else {
                                                if (x[1] <= 0.07499999832361937) {
                                                    votes[0] += 1;
                                                }

                                                else {
                                                    votes[2] += 1;
                                                }
                                            }
                                        }

                                        else {
                                            if (x[543] <= -30.42500114440918) {
                                                votes[5] += 1;
                                            }

                                            else {
                                                votes[3] += 1;
                                            }
                                        }
                                    }

                                    else {
                                        if (x[330] <= -0.42499999701976776) {
                                            votes[5] += 1;
                                        }

                                        else {
                                            votes[0] += 1;
                                        }
                                    }
                                }

                                else {
                                    votes[3] += 1;
                                }
                            }
                        }

                        else {
                            if (x[181] <= 19.6850004196167) {
                                if (x[303] <= -0.4299999922513962) {
                                    votes[1] += 1;
                                }

                                else {
                                    if (x[463] <= 0.11499999836087227) {
                                        votes[4] += 1;
                                    }

                                    else {
                                        if (x[632] <= 0.08499999903142452) {
                                            votes[1] += 1;
                                        }

                                        else {
                                            votes[4] += 1;
                                        }
                                    }
                                }
                            }

                            else {
                                if (x[221] <= 64.36499786376953) {
                                    if (x[286] <= -35.30999946594238) {
                                        votes[4] += 1;
                                    }

                                    else {
                                        votes[1] += 1;
                                    }
                                }

                                else {
                                    votes[4] += 1;
                                }
                            }
                        }

                        // tree #9
                        if (x[252] <= 813.5) {
                            if (x[171] <= -1.1899999976158142) {
                                if (x[44] <= -0.1850000023841858) {
                                    votes[5] += 1;
                                }

                                else {
                                    if (x[184] <= -1.0150000154972076) {
                                        votes[3] += 1;
                                    }

                                    else {
                                        votes[2] += 1;
                                    }
                                }
                            }

                            else {
                                if (x[65] <= -0.004999999888241291) {
                                    if (x[184] <= -0.04499999899417162) {
                                        if (x[526] <= -0.26500000804662704) {
                                            if (x[603] <= -0.4950000047683716) {
                                                votes[5] += 1;
                                            }

                                            else {
                                                votes[2] += 1;
                                            }
                                        }

                                        else {
                                            votes[0] += 1;
                                        }
                                    }

                                    else {
                                        if (x[150] <= -0.7050000131130219) {
                                            votes[2] += 1;
                                        }

                                        else {
                                            votes[5] += 1;
                                        }
                                    }
                                }

                                else {
                                    if (x[641] <= -12.84999966621399) {
                                        votes[2] += 1;
                                    }

                                    else {
                                        if (x[58] <= -0.044999998062849045) {
                                            votes[0] += 1;
                                        }

                                        else {
                                            votes[3] += 1;
                                        }
                                    }
                                }
                            }
                        }

                        else {
                            if (x[188] <= 38.27000045776367) {
                                if (x[589] <= 0.13500000163912773) {
                                    if (x[365] <= -0.8550000265240669) {
                                        votes[1] += 1;
                                    }

                                    else {
                                        votes[4] += 1;
                                    }
                                }

                                else {
                                    if (x[310] <= -0.10999999195337296) {
                                        votes[1] += 1;
                                    }

                                    else {
                                        votes[4] += 1;
                                    }
                                }
                            }

                            else {
                                if (x[230] <= -21.425000190734863) {
                                    votes[4] += 1;
                                }

                                else {
                                    votes[1] += 1;
                                }
                            }
                        }

                        // tree #10
                        if (x[448] <= 1438.0) {
                            if (x[44] <= -0.11999999731779099) {
                                if (x[108] <= -0.4050000011920929) {
                                    if (x[8] <= 0.1599999964237213) {
                                        votes[0] += 1;
                                    }

                                    else {
                                        if (x[450] <= -0.22499999403953552) {
                                            votes[5] += 1;
                                        }

                                        else {
                                            votes[2] += 1;
                                        }
                                    }
                                }

                                else {
                                    votes[5] += 1;
                                }
                            }

                            else {
                                if (x[240] <= -0.5449999868869781) {
                                    votes[3] += 1;
                                }

                                else {
                                    if (x[555] <= 0.08499999903142452) {
                                        if (x[377] <= -179.89999389648438) {
                                            votes[3] += 1;
                                        }

                                        else {
                                            if (x[48] <= 11.625) {
                                                if (x[54] <= -75.0999984741211) {
                                                    votes[0] += 1;
                                                }

                                                else {
                                                    if (x[671] <= -2.7799999713897705) {
                                                        votes[0] += 1;
                                                    }

                                                    else {
                                                        votes[2] += 1;
                                                    }
                                                }
                                            }

                                            else {
                                                if (x[604] <= -0.255000002682209) {
                                                    votes[0] += 1;
                                                }

                                                else {
                                                    votes[3] += 1;
                                                }
                                            }
                                        }
                                    }

                                    else {
                                        if (x[36] <= 0.07999999728053808) {
                                            votes[5] += 1;
                                        }

                                        else {
                                            votes[3] += 1;
                                        }
                                    }
                                }
                            }
                        }

                        else {
                            if (x[659] <= 0.044999999925494194) {
                                if (x[48] <= -47.54499959945679) {
                                    votes[1] += 1;
                                }

                                else {
                                    votes[4] += 1;
                                }
                            }

                            else {
                                if (x[169] <= 0.17500000447034836) {
                                    if (x[435] <= 0.004999999888241291) {
                                        votes[4] += 1;
                                    }

                                    else {
                                        votes[1] += 1;
                                    }
                                }

                                else {
                                    votes[4] += 1;
                                }
                            }
                        }

                        // tree #11
                        if (x[210] <= 681.0) {
                            if (x[36] <= 0.09499999694526196) {
                                if (x[615] <= -8.210000038146973) {
                                    votes[5] += 1;
                                }

                                else {
                                    votes[0] += 1;
                                }
                            }

                            else {
                                if (x[240] <= -0.5349999964237213) {
                                    if (x[86] <= -0.03500000387430191) {
                                        votes[5] += 1;
                                    }

                                    else {
                                        votes[3] += 1;
                                    }
                                }

                                else {
                                    if (x[16] <= 0.19500000029802322) {
                                        if (x[482] <= -162.35499954223633) {
                                            votes[5] += 1;
                                        }

                                        else {
                                            if (x[652] <= 0.45499999821186066) {
                                                votes[2] += 1;
                                            }

                                            else {
                                                votes[5] += 1;
                                            }
                                        }
                                    }

                                    else {
                                        if (x[20] <= -6.954999804496765) {
                                            votes[2] += 1;
                                        }

                                        else {
                                            votes[3] += 1;
                                        }
                                    }
                                }
                            }
                        }

                        else {
                            if (x[99] <= 0.2149999961256981) {
                                if (x[594] <= 0.24500000104308128) {
                                    votes[1] += 1;
                                }

                                else {
                                    if (x[463] <= 0.03499999921768904) {
                                        votes[4] += 1;
                                    }

                                    else {
                                        votes[1] += 1;
                                    }
                                }
                            }

                            else {
                                if (x[638] <= 0.2850000038743019) {
                                    votes[4] += 1;
                                }

                                else {
                                    votes[1] += 1;
                                }
                            }
                        }

                        // tree #12
                        if (x[325] <= 0.3749999925494194) {
                            if (x[174] <= 42.08500099182129) {
                                if (x[233] <= -0.4350000023841858) {
                                    if (x[665] <= 1915.0) {
                                        votes[3] += 1;
                                    }

                                    else {
                                        if (x[653] <= -0.17000000178813934) {
                                            votes[5] += 1;
                                        }

                                        else {
                                            votes[3] += 1;
                                        }
                                    }
                                }

                                else {
                                    if (x[101] <= -0.875) {
                                        if (x[636] <= -15.229999542236328) {
                                            votes[5] += 1;
                                        }

                                        else {
                                            votes[0] += 1;
                                        }
                                    }

                                    else {
                                        if (x[72] <= 0.255000002682209) {
                                            if (x[301] <= 864.5) {
                                                votes[2] += 1;
                                            }

                                            else {
                                                votes[5] += 1;
                                            }
                                        }

                                        else {
                                            votes[3] += 1;
                                        }
                                    }
                                }
                            }

                            else {
                                if (x[529] <= -8.03000020980835) {
                                    if (x[170] <= -0.3149999864399433) {
                                        votes[5] += 1;
                                    }

                                    else {
                                        votes[0] += 1;
                                    }
                                }

                                else {
                                    if (x[331] <= 0.3750000074505806) {
                                        if (x[661] <= -0.8700000047683716) {
                                            votes[2] += 1;
                                        }

                                        else {
                                            votes[5] += 1;
                                        }
                                    }

                                    else {
                                        votes[3] += 1;
                                    }
                                }
                            }
                        }

                        else {
                            if (x[113] <= 0.16499999910593033) {
                                if (x[604] <= 0.10999999940395355) {
                                    votes[1] += 1;
                                }

                                else {
                                    if (x[543] <= -1.5250000040978193) {
                                        votes[4] += 1;
                                    }

                                    else {
                                        votes[1] += 1;
                                    }
                                }
                            }

                            else {
                                if (x[25] <= -33.63000011444092) {
                                    votes[1] += 1;
                                }

                                else {
                                    votes[4] += 1;
                                }
                            }
                        }

                        // tree #13
                        if (x[182] <= 592.0) {
                            if (x[1] <= 0.0949999988079071) {
                                if (x[632] <= -0.13499999791383743) {
                                    votes[0] += 1;
                                }

                                else {
                                    votes[5] += 1;
                                }
                            }

                            else {
                                if (x[79] <= 0.09999999776482582) {
                                    if (x[134] <= -0.2749999910593033) {
                                        votes[5] += 1;
                                    }

                                    else {
                                        if (x[2] <= -0.13500000163912773) {
                                            votes[5] += 1;
                                        }

                                        else {
                                            if (x[59] <= -0.925000011920929) {
                                                votes[0] += 1;
                                            }

                                            else {
                                                if (x[558] <= 107.33000183105469) {
                                                    votes[2] += 1;
                                                }

                                                else {
                                                    votes[5] += 1;
                                                }
                                            }
                                        }
                                    }
                                }

                                else {
                                    if (x[39] <= -13.304999828338623) {
                                        if (x[553] <= 1575.0) {
                                            votes[2] += 1;
                                        }

                                        else {
                                            votes[5] += 1;
                                        }
                                    }

                                    else {
                                        votes[3] += 1;
                                    }
                                }
                            }
                        }

                        else {
                            if (x[512] <= 0.10500000044703484) {
                                if (x[510] <= -7.5950000286102295) {
                                    votes[1] += 1;
                                }

                                else {
                                    if (x[153] <= 105.04500198364258) {
                                        if (x[205] <= -0.20500000566244125) {
                                            if (x[484] <= 0.024999999441206455) {
                                                votes[4] += 1;
                                            }

                                            else {
                                                votes[1] += 1;
                                            }
                                        }

                                        else {
                                            votes[4] += 1;
                                        }
                                    }

                                    else {
                                        votes[1] += 1;
                                    }
                                }
                            }

                            else {
                                if (x[314] <= -12.050000190734863) {
                                    if (x[200] <= 3.3549998998641968) {
                                        votes[1] += 1;
                                    }

                                    else {
                                        votes[4] += 1;
                                    }
                                }

                                else {
                                    votes[1] += 1;
                                }
                            }
                        }

                        // tree #14
                        if (x[311] <= 0.6049999892711639) {
                            if (x[195] <= -1.1249999403953552) {
                                if (x[71] <= 0.2199999988079071) {
                                    if (x[580] <= -8.364999771118164) {
                                        if (x[179] <= -72.87500333786011) {
                                            votes[5] += 1;
                                        }

                                        else {
                                            votes[3] += 1;
                                        }
                                    }

                                    else {
                                        votes[0] += 1;
                                    }
                                }

                                else {
                                    if (x[56] <= 168.5) {
                                        if (x[80] <= -0.26000000163912773) {
                                            votes[3] += 1;
                                        }

                                        else {
                                            votes[5] += 1;
                                        }
                                    }

                                    else {
                                        votes[5] += 1;
                                    }
                                }
                            }

                            else {
                                if (x[29] <= 0.08999999891966581) {
                                    if (x[371] <= 1059.0) {
                                        votes[5] += 1;
                                    }

                                    else {
                                        votes[0] += 1;
                                    }
                                }

                                else {
                                    if (x[86] <= 0.20499999821186066) {
                                        if (x[685] <= -5.860000252723694) {
                                            votes[5] += 1;
                                        }

                                        else {
                                            if (x[167] <= 177.09000396728516) {
                                                votes[2] += 1;
                                            }

                                            else {
                                                votes[5] += 1;
                                            }
                                        }
                                    }

                                    else {
                                        if (x[50] <= 0.5049999803304672) {
                                            if (x[600] <= -3.8450000286102295) {
                                                votes[2] += 1;
                                            }

                                            else {
                                                votes[5] += 1;
                                            }
                                        }

                                        else {
                                            votes[3] += 1;
                                        }
                                    }
                                }
                            }
                        }

                        else {
                            if (x[216] <= 36.64999961853027) {
                                if (x[2] <= -0.0950000025331974) {
                                    if (x[366] <= 0.0400000000372529) {
                                        votes[1] += 1;
                                    }

                                    else {
                                        votes[4] += 1;
                                    }
                                }

                                else {
                                    if (x[501] <= -8.90999984741211) {
                                        votes[1] += 1;
                                    }

                                    else {
                                        if (x[100] <= -0.3799999952316284) {
                                            votes[1] += 1;
                                        }

                                        else {
                                            votes[4] += 1;
                                        }
                                    }
                                }
                            }

                            else {
                                if (x[173] <= 12.149999618530273) {
                                    votes[1] += 1;
                                }

                                else {
                                    votes[4] += 1;
                                }
                            }
                        }

                        // tree #15
                        if (x[486] <= 0.4149999860674143) {
                            if (x[37] <= -0.014999999664723873) {
                                if (x[288] <= 0.015000000596046448) {
                                    if (x[554] <= -0.3099999949336052) {
                                        votes[5] += 1;
                                    }

                                    else {
                                        if (x[5] <= -8.944999665021896) {
                                            votes[2] += 1;
                                        }

                                        else {
                                            votes[0] += 1;
                                        }
                                    }
                                }

                                else {
                                    if (x[504] <= 1445.0) {
                                        votes[2] += 1;
                                    }

                                    else {
                                        if (x[15] <= 0.0800000037997961) {
                                            votes[0] += 1;
                                        }

                                        else {
                                            votes[5] += 1;
                                        }
                                    }
                                }
                            }

                            else {
                                if (x[331] <= 0.24499999731779099) {
                                    if (x[326] <= -19.16499948501587) {
                                        if (x[354] <= -22.979999542236328) {
                                            if (x[108] <= -1.475000023841858) {
                                                votes[2] += 1;
                                            }

                                            else {
                                                votes[3] += 1;
                                            }
                                        }

                                        else {
                                            votes[0] += 1;
                                        }
                                    }

                                    else {
                                        if (x[555] <= 0.11500000022351742) {
                                            votes[2] += 1;
                                        }

                                        else {
                                            if (x[454] <= 40.64999961853027) {
                                                votes[5] += 1;
                                            }

                                            else {
                                                votes[3] += 1;
                                            }
                                        }
                                    }
                                }

                                else {
                                    votes[3] += 1;
                                }
                            }
                        }

                        else {
                            if (x[631] <= 0.044999999925494194) {
                                if (x[692] <= -9.919999837875366) {
                                    votes[1] += 1;
                                }

                                else {
                                    votes[4] += 1;
                                }
                            }

                            else {
                                if (x[134] <= 0.3500000089406967) {
                                    votes[1] += 1;
                                }

                                else {
                                    votes[4] += 1;
                                }
                            }
                        }

                        // return argmax of votes
                        uint8_t classIdx = 0;
                        float maxVotes = votes[0];

                        for (uint8_t i = 1; i < 6; i++) {
                            if (votes[i] > maxVotes) {
                                classIdx = i;
                                maxVotes = votes[i];
                            }
                        }

                        return classIdx;
                    }

                    /**
                    * Predict readable class name
                    */
                    const char* predictLabel(float *x) {
                        return idxToLabel(predict(x));
                    }

                    /**
                    * Convert class idx to readable name
                    */
                    const char* idxToLabel(uint8_t classIdx) {
                        switch (classIdx) {
                            case 0:
                            return "lumos";
                            case 1:
                            return "lewo";
                            case 2:
                            return "wingardium";
                            case 3:
                            return "avada";
                            case 4:
                            return "przod";
                            case 5:
                            return "alohomora";
                            default:
                            return "Houston we have a problem";
                        }
                    }

                protected:
                };
            }
        }
    }