#pragma once
#include <cstdarg>
namespace Eloquent {
    namespace ML {
        namespace Port {
            class RandomForest {
                public:
                    /**
                    * Predict class for features vector
                    */
                    int predict(float *x) {
                        uint8_t votes[4] = { 0 };
                        // tree #1
                        if (x[59] <= -0.6050000190734863) {
                            if (x[65] <= -0.17000000178813934) {
                                if (x[29] <= 0.1400000024586916) {
                                    votes[2] += 1;
                                }

                                else {
                                    votes[0] += 1;
                                }
                            }

                            else {
                                if (x[8] <= 0.0949999988079071) {
                                    if (x[471] <= 0.024999999441206455) {
                                        votes[2] += 1;
                                    }

                                    else {
                                        votes[0] += 1;
                                    }
                                }

                                else {
                                    if (x[535] <= -1.1850000023841858) {
                                        if (x[547] <= -0.17999999970197678) {
                                            votes[0] += 1;
                                        }

                                        else {
                                            votes[3] += 1;
                                        }
                                    }

                                    else {
                                        if (x[128] <= -0.125) {
                                            if (x[338] <= 0.06500000134110451) {
                                                if (x[226] <= -0.02500000223517418) {
                                                    votes[2] += 1;
                                                }

                                                else {
                                                    votes[3] += 1;
                                                }
                                            }

                                            else {
                                                votes[1] += 1;
                                            }
                                        }

                                        else {
                                            votes[1] += 1;
                                        }
                                    }
                                }
                            }
                        }

                        else {
                            if (x[191] <= -0.6099999994039536) {
                                if (x[146] <= -170.17000579833984) {
                                    votes[0] += 1;
                                }

                                else {
                                    votes[1] += 1;
                                }
                            }

                            else {
                                votes[3] += 1;
                            }
                        }

                        // tree #2
                        if (x[96] <= 37.5049991607666) {
                            if (x[1] <= 0.10999999940395355) {
                                if (x[604] <= 0.050000001676380634) {
                                    votes[2] += 1;
                                }

                                else {
                                    votes[0] += 1;
                                }
                            }

                            else {
                                if (x[313] <= -57.040000915527344) {
                                    if (x[534] <= -0.19500000029802322) {
                                        if (x[361] <= -103.36499786376953) {
                                            votes[1] += 1;
                                        }

                                        else {
                                            votes[0] += 1;
                                        }
                                    }

                                    else {
                                        if (x[367] <= -0.375) {
                                            if (x[565] <= 50.44499969482422) {
                                                votes[1] += 1;
                                            }

                                            else {
                                                votes[0] += 1;
                                            }
                                        }

                                        else {
                                            votes[3] += 1;
                                        }
                                    }
                                }

                                else {
                                    if (x[199] <= -1.3700000047683716) {
                                        if (x[357] <= 1042.5) {
                                            votes[0] += 1;
                                        }

                                        else {
                                            votes[3] += 1;
                                        }
                                    }

                                    else {
                                        if (x[565] <= 40.71000099182129) {
                                            votes[1] += 1;
                                        }

                                        else {
                                            votes[0] += 1;
                                        }
                                    }
                                }
                            }
                        }

                        else {
                            if (x[146] <= 4.610000014305115) {
                                if (x[558] <= -0.39500000700354576) {
                                    if (x[429] <= -0.16499999910593033) {
                                        votes[0] += 1;
                                    }

                                    else {
                                        votes[1] += 1;
                                    }
                                }

                                else {
                                    votes[2] += 1;
                                }
                            }

                            else {
                                votes[3] += 1;
                            }
                        }

                        // tree #3
                        if (x[208] <= 11.625) {
                            if (x[17] <= -0.9300000071525574) {
                                if (x[50] <= 0.11000000312924385) {
                                    if (x[314] <= -55.90999984741211) {
                                        votes[0] += 1;
                                    }

                                    else {
                                        votes[2] += 1;
                                    }
                                }

                                else {
                                    if (x[51] <= -0.11500000208616257) {
                                        votes[0] += 1;
                                    }

                                    else {
                                        votes[3] += 1;
                                    }
                                }
                            }

                            else {
                                if (x[96] <= 7.170000076293945) {
                                    votes[1] += 1;
                                }

                                else {
                                    if (x[160] <= -25.115001678466797) {
                                        votes[0] += 1;
                                    }

                                    else {
                                        votes[3] += 1;
                                    }
                                }
                            }
                        }

                        else {
                            if (x[58] <= -0.24000000208616257) {
                                votes[0] += 1;
                            }

                            else {
                                if (x[283] <= -1.3350000381469727) {
                                    if (x[611] <= -0.26500000059604645) {
                                        votes[2] += 1;
                                    }

                                    else {
                                        if (x[325] <= -0.8549999892711639) {
                                            votes[0] += 1;
                                        }

                                        else {
                                            votes[3] += 1;
                                        }
                                    }
                                }

                                else {
                                    if (x[227] <= -1.4150000214576721) {
                                        if (x[135] <= -0.019999999552965164) {
                                            votes[3] += 1;
                                        }

                                        else {
                                            if (x[513] <= -0.30000000447034836) {
                                                votes[2] += 1;
                                            }

                                            else {
                                                votes[1] += 1;
                                            }
                                        }
                                    }

                                    else {
                                        votes[1] += 1;
                                    }
                                }
                            }
                        }

                        // tree #4
                        if (x[72] <= -0.39499999582767487) {
                            if (x[264] <= 289.9149971008301) {
                                votes[0] += 1;
                            }

                            else {
                                votes[3] += 1;
                            }
                        }

                        else {
                            if (x[103] <= 26.369999885559082) {
                                if (x[134] <= -0.005000000819563866) {
                                    if (x[470] <= -0.20499999821186066) {
                                        votes[0] += 1;
                                    }

                                    else {
                                        votes[2] += 1;
                                    }
                                }

                                else {
                                    if (x[479] <= -0.824999988079071) {
                                        if (x[129] <= -0.550000011920929) {
                                            if (x[64] <= 0.21000000089406967) {
                                                if (x[123] <= 42.69499969482422) {
                                                    votes[2] += 1;
                                                }

                                                else {
                                                    votes[0] += 1;
                                                }
                                            }

                                            else {
                                                if (x[313] <= -121.15499877929688) {
                                                    if (x[379] <= 0.3399999961256981) {
                                                        votes[0] += 1;
                                                    }

                                                    else {
                                                        votes[3] += 1;
                                                    }
                                                }

                                                else {
                                                    votes[1] += 1;
                                                }
                                            }
                                        }

                                        else {
                                            if (x[266] <= 757.0) {
                                                votes[3] += 1;
                                            }

                                            else {
                                                votes[2] += 1;
                                            }
                                        }
                                    }

                                    else {
                                        if (x[112] <= 329.0) {
                                            votes[1] += 1;
                                        }

                                        else {
                                            votes[0] += 1;
                                        }
                                    }
                                }
                            }

                            else {
                                if (x[170] <= -0.4399999976158142) {
                                    if (x[289] <= 0.24499999918043613) {
                                        if (x[609] <= 1758.5) {
                                            votes[0] += 1;
                                        }

                                        else {
                                            votes[2] += 1;
                                        }
                                    }

                                    else {
                                        votes[1] += 1;
                                    }
                                }

                                else {
                                    if (x[243] <= -317.44500732421875) {
                                        votes[2] += 1;
                                    }

                                    else {
                                        if (x[269] <= -1.4900000095367432) {
                                            votes[2] += 1;
                                        }

                                        else {
                                            votes[3] += 1;
                                        }
                                    }
                                }
                            }
                        }

                        // tree #5
                        if (x[345] <= 0.16500000655651093) {
                            if (x[75] <= 21.024999618530273) {
                                if (x[43] <= 0.14499999955296516) {
                                    if (x[349] <= -26.304999351501465) {
                                        votes[0] += 1;
                                    }

                                    else {
                                        votes[2] += 1;
                                    }
                                }

                                else {
                                    if (x[696] <= -0.9650000035762787) {
                                        if (x[639] <= -0.0800000000745058) {
                                            if (x[292] <= 4.240000247955322) {
                                                votes[0] += 1;
                                            }

                                            else {
                                                votes[1] += 1;
                                            }
                                        }

                                        else {
                                            votes[3] += 1;
                                        }
                                    }

                                    else {
                                        if (x[45] <= -0.8050000071525574) {
                                            votes[0] += 1;
                                        }

                                        else {
                                            votes[1] += 1;
                                        }
                                    }
                                }
                            }

                            else {
                                if (x[205] <= -0.4350000023841858) {
                                    if (x[15] <= 0.10500000230967999) {
                                        votes[2] += 1;
                                    }

                                    else {
                                        if (x[338] <= -0.7050000056624413) {
                                            votes[0] += 1;
                                        }

                                        else {
                                            votes[1] += 1;
                                        }
                                    }
                                }

                                else {
                                    if (x[324] <= -0.6100000143051147) {
                                        votes[0] += 1;
                                    }

                                    else {
                                        if (x[13] <= 5.494999885559082) {
                                            votes[3] += 1;
                                        }

                                        else {
                                            votes[2] += 1;
                                        }
                                    }
                                }
                            }
                        }

                        else {
                            if (x[271] <= -46.480000495910645) {
                                votes[0] += 1;
                            }

                            else {
                                votes[1] += 1;
                            }
                        }

                        // tree #6
                        if (x[89] <= 28.5600004196167) {
                            if (x[93] <= -0.19500000029802322) {
                                if (x[691] <= -1.8600000143051147) {
                                    votes[0] += 1;
                                }

                                else {
                                    if (x[63] <= 191.0) {
                                        votes[2] += 1;
                                    }

                                    else {
                                        if (x[682] <= -0.9799999892711639) {
                                            votes[3] += 1;
                                        }

                                        else {
                                            votes[0] += 1;
                                        }
                                    }
                                }
                            }

                            else {
                                if (x[254] <= -0.41999998688697815) {
                                    votes[1] += 1;
                                }

                                else {
                                    if (x[306] <= -44.189998626708984) {
                                        votes[3] += 1;
                                    }

                                    else {
                                        if (x[496] <= 20.205000400543213) {
                                            if (x[73] <= -0.9900000095367432) {
                                                votes[2] += 1;
                                            }

                                            else {
                                                votes[1] += 1;
                                            }
                                        }

                                        else {
                                            if (x[587] <= -14.100000143051147) {
                                                votes[1] += 1;
                                            }

                                            else {
                                                votes[0] += 1;
                                            }
                                        }
                                    }
                                }
                            }
                        }

                        else {
                            if (x[146] <= -67.98999786376953) {
                                if (x[79] <= 0.29999998956918716) {
                                    votes[0] += 1;
                                }

                                else {
                                    votes[1] += 1;
                                }
                            }

                            else {
                                if (x[31] <= -1.0) {
                                    votes[2] += 1;
                                }

                                else {
                                    if (x[468] <= -27.710000038146973) {
                                        if (x[439] <= 185.88000297546387) {
                                            votes[0] += 1;
                                        }

                                        else {
                                            votes[2] += 1;
                                        }
                                    }

                                    else {
                                        votes[3] += 1;
                                    }
                                }
                            }
                        }

                        // tree #7
                        if (x[65] <= -0.3050000071525574) {
                            if (x[173] <= -109.86499786376953) {
                                if (x[699] <= 3.725000023841858) {
                                    votes[3] += 1;
                                }

                                else {
                                    votes[2] += 1;
                                }
                            }

                            else {
                                votes[0] += 1;
                            }
                        }

                        else {
                            if (x[150] <= -1.3049999475479126) {
                                if (x[236] <= 54.600000619888306) {
                                    if (x[137] <= -76.04999923706055) {
                                        votes[1] += 1;
                                    }

                                    else {
                                        votes[3] += 1;
                                    }
                                }

                                else {
                                    votes[2] += 1;
                                }
                            }

                            else {
                                if (x[695] <= -0.10500000044703484) {
                                    if (x[72] <= -0.19999999552965164) {
                                        if (x[672] <= 1960.5) {
                                            votes[2] += 1;
                                        }

                                        else {
                                            if (x[474] <= 55.90999794006348) {
                                                votes[1] += 1;
                                            }

                                            else {
                                                votes[0] += 1;
                                            }
                                        }
                                    }

                                    else {
                                        if (x[276] <= -1.3250000476837158) {
                                            if (x[536] <= 8.93999993801117) {
                                                votes[2] += 1;
                                            }

                                            else {
                                                if (x[409] <= -0.2800000011920929) {
                                                    votes[0] += 1;
                                                }

                                                else {
                                                    votes[3] += 1;
                                                }
                                            }
                                        }

                                        else {
                                            if (x[78] <= 0.0) {
                                                votes[2] += 1;
                                            }

                                            else {
                                                votes[1] += 1;
                                            }
                                        }
                                    }
                                }

                                else {
                                    if (x[349] <= -28.16499900817871) {
                                        if (x[356] <= -190.98000144958496) {
                                            votes[1] += 1;
                                        }

                                        else {
                                            votes[0] += 1;
                                        }
                                    }

                                    else {
                                        votes[3] += 1;
                                    }
                                }
                            }
                        }

                        // tree #8
                        if (x[43] <= 0.024999999441206455) {
                            if (x[512] <= -0.28999999165534973) {
                                if (x[128] <= -0.19500000029802322) {
                                    votes[0] += 1;
                                }

                                else {
                                    votes[3] += 1;
                                }
                            }

                            else {
                                votes[2] += 1;
                            }
                        }

                        else {
                            if (x[352] <= 0.33500000834465027) {
                                if (x[282] <= -0.1550000011920929) {
                                    if (x[51] <= -0.17500000447034836) {
                                        votes[0] += 1;
                                    }

                                    else {
                                        if (x[87] <= -1.0649999976158142) {
                                            if (x[630] <= 1855.5) {
                                                votes[3] += 1;
                                            }

                                            else {
                                                votes[0] += 1;
                                            }
                                        }

                                        else {
                                            votes[1] += 1;
                                        }
                                    }
                                }

                                else {
                                    if (x[51] <= -0.21000000089406967) {
                                        votes[0] += 1;
                                    }

                                    else {
                                        if (x[282] <= 0.2900000065565109) {
                                            votes[3] += 1;
                                        }

                                        else {
                                            if (x[27] <= -6.865000247955322) {
                                                votes[3] += 1;
                                            }

                                            else {
                                                votes[1] += 1;
                                            }
                                        }
                                    }
                                }
                            }

                            else {
                                if (x[93] <= -0.5900000035762787) {
                                    votes[0] += 1;
                                }

                                else {
                                    votes[1] += 1;
                                }
                            }
                        }

                        // tree #9
                        if (x[23] <= -0.11499999836087227) {
                            if (x[20] <= 7.8999998569488525) {
                                if (x[464] <= -0.6349999904632568) {
                                    if (x[184] <= -0.6050000041723251) {
                                        votes[1] += 1;
                                    }

                                    else {
                                        votes[2] += 1;
                                    }
                                }

                                else {
                                    if (x[183] <= -0.2800000011920929) {
                                        votes[2] += 1;
                                    }

                                    else {
                                        if (x[368] <= -44.43499946594238) {
                                            votes[2] += 1;
                                        }

                                        else {
                                            if (x[667] <= -0.12999999895691872) {
                                                votes[0] += 1;
                                            }

                                            else {
                                                if (x[603] <= -0.19000000692903996) {
                                                    votes[0] += 1;
                                                }

                                                else {
                                                    votes[3] += 1;
                                                }
                                            }
                                        }
                                    }
                                }
                            }

                            else {
                                if (x[663] <= -3.1450001001358032) {
                                    if (x[641] <= -1.9199999868869781) {
                                        votes[1] += 1;
                                    }

                                    else {
                                        votes[0] += 1;
                                    }
                                }

                                else {
                                    votes[2] += 1;
                                }
                            }
                        }

                        else {
                            if (x[257] <= -29.23499870300293) {
                                if (x[188] <= -43.54999923706055) {
                                    if (x[298] <= -2.744999885559082) {
                                        votes[1] += 1;
                                    }

                                    else {
                                        votes[0] += 1;
                                    }
                                }

                                else {
                                    if (x[662] <= 7.5350000858306885) {
                                        votes[3] += 1;
                                    }

                                    else {
                                        if (x[301] <= 877.0) {
                                            votes[2] += 1;
                                        }

                                        else {
                                            votes[3] += 1;
                                        }
                                    }
                                }
                            }

                            else {
                                if (x[19] <= 9.18500018119812) {
                                    if (x[444] <= -0.7750000059604645) {
                                        if (x[139] <= 60.97500038146973) {
                                            if (x[57] <= 0.03999999910593033) {
                                                votes[2] += 1;
                                            }

                                            else {
                                                votes[1] += 1;
                                            }
                                        }

                                        else {
                                            votes[3] += 1;
                                        }
                                    }

                                    else {
                                        if (x[352] <= -0.31000001169741154) {
                                            votes[0] += 1;
                                        }

                                        else {
                                            votes[3] += 1;
                                        }
                                    }
                                }

                                else {
                                    votes[2] += 1;
                                }
                            }
                        }

                        // tree #10
                        if (x[195] <= 43.42500114440918) {
                            if (x[44] <= -0.22500000149011612) {
                                if (x[285] <= 80.53500175476074) {
                                    if (x[64] <= 0.0999999986961484) {
                                        votes[2] += 1;
                                    }

                                    else {
                                        votes[0] += 1;
                                    }
                                }

                                else {
                                    votes[2] += 1;
                                }
                            }

                            else {
                                if (x[412] <= -23.22000026702881) {
                                    votes[1] += 1;
                                }

                                else {
                                    if (x[128] <= -0.0950000025331974) {
                                        if (x[174] <= 40.19499969482422) {
                                            votes[2] += 1;
                                        }

                                        else {
                                            votes[0] += 1;
                                        }
                                    }

                                    else {
                                        if (x[159] <= -8.300000190734863) {
                                            if (x[14] <= 50.5) {
                                                votes[3] += 1;
                                            }

                                            else {
                                                votes[2] += 1;
                                            }
                                        }

                                        else {
                                            if (x[123] <= -39.2450008392334) {
                                                votes[3] += 1;
                                            }

                                            else {
                                                votes[1] += 1;
                                            }
                                        }
                                    }
                                }
                            }
                        }

                        else {
                            if (x[249] <= -55.53999900817871) {
                                if (x[604] <= 0.10000000149011612) {
                                    votes[0] += 1;
                                }

                                else {
                                    votes[1] += 1;
                                }
                            }

                            else {
                                if (x[36] <= -0.04500000365078449) {
                                    votes[2] += 1;
                                }

                                else {
                                    votes[3] += 1;
                                }
                            }
                        }

                        // tree #11
                        if (x[36] <= 0.09999999962747097) {
                            if (x[489] <= 7.995000123977661) {
                                votes[2] += 1;
                            }

                            else {
                                votes[0] += 1;
                            }
                        }

                        else {
                            if (x[465] <= -0.8149999976158142) {
                                if (x[150] <= -1.0800000429153442) {
                                    if (x[69] <= 34.72999954223633) {
                                        if (x[216] <= 137.48500061035156) {
                                            votes[3] += 1;
                                        }

                                        else {
                                            votes[1] += 1;
                                        }
                                    }

                                    else {
                                        votes[0] += 1;
                                    }
                                }

                                else {
                                    if (x[4] <= 5.645000100135803) {
                                        if (x[516] <= 37.26500129699707) {
                                            votes[1] += 1;
                                        }

                                        else {
                                            if (x[396] <= -32.86999988555908) {
                                                votes[1] += 1;
                                            }

                                            else {
                                                votes[2] += 1;
                                            }
                                        }
                                    }

                                    else {
                                        if (x[125] <= 18.950000286102295) {
                                            if (x[365] <= 0.2549999952316284) {
                                                votes[1] += 1;
                                            }

                                            else {
                                                votes[3] += 1;
                                            }
                                        }

                                        else {
                                            votes[0] += 1;
                                        }
                                    }
                                }
                            }

                            else {
                                if (x[154] <= 444.5) {
                                    votes[3] += 1;
                                }

                                else {
                                    votes[0] += 1;
                                }
                            }
                        }

                        // tree #12
                        if (x[282] <= -0.19500000029802322) {
                            if (x[451] <= -0.7849999964237213) {
                                if (x[314] <= 58.2599983215332) {
                                    if (x[124] <= 49.89500045776367) {
                                        if (x[225] <= 0.08999999985098839) {
                                            votes[2] += 1;
                                        }

                                        else {
                                            if (x[78] <= 0.059999994933605194) {
                                                if (x[636] <= 1.9499999843537807) {
                                                    votes[2] += 1;
                                                }

                                                else {
                                                    votes[3] += 1;
                                                }
                                            }

                                            else {
                                                votes[1] += 1;
                                            }
                                        }
                                    }

                                    else {
                                        votes[0] += 1;
                                    }
                                }

                                else {
                                    if (x[75] <= 22.795000076293945) {
                                        votes[1] += 1;
                                    }

                                    else {
                                        votes[0] += 1;
                                    }
                                }
                            }

                            else {
                                votes[0] += 1;
                            }
                        }

                        else {
                            if (x[31] <= -0.9600000083446503) {
                                if (x[564] <= -0.9449999928474426) {
                                    votes[0] += 1;
                                }

                                else {
                                    if (x[137] <= -22.005000114440918) {
                                        if (x[5] <= 2.3199999928474426) {
                                            votes[0] += 1;
                                        }

                                        else {
                                            votes[2] += 1;
                                        }
                                    }

                                    else {
                                        if (x[384] <= -35.829999923706055) {
                                            if (x[461] <= -22.94999885559082) {
                                                votes[1] += 1;
                                            }

                                            else {
                                                votes[2] += 1;
                                            }
                                        }

                                        else {
                                            votes[3] += 1;
                                        }
                                    }
                                }
                            }

                            else {
                                if (x[48] <= 13.059999942779541) {
                                    if (x[59] <= -0.8299999833106995) {
                                        if (x[366] <= -0.5000000074505806) {
                                            votes[0] += 1;
                                        }

                                        else {
                                            votes[1] += 1;
                                        }
                                    }

                                    else {
                                        votes[3] += 1;
                                    }
                                }

                                else {
                                    votes[1] += 1;
                                }
                            }
                        }

                        // tree #13
                        if (x[164] <= -1.1949999928474426) {
                            if (x[44] <= -0.2150000035762787) {
                                votes[0] += 1;
                            }

                            else {
                                if (x[236] <= -13.03000020980835) {
                                    votes[3] += 1;
                                }

                                else {
                                    if (x[639] <= -0.0950000025331974) {
                                        votes[2] += 1;
                                    }

                                    else {
                                        votes[1] += 1;
                                    }
                                }
                            }
                        }

                        else {
                            if (x[225] <= 0.0400000000372529) {
                                if (x[497] <= 1448.0) {
                                    if (x[426] <= -53.64999961853027) {
                                        if (x[228] <= -13.88499927520752) {
                                            if (x[130] <= 36.92500114440918) {
                                                votes[1] += 1;
                                            }

                                            else {
                                                votes[0] += 1;
                                            }
                                        }

                                        else {
                                            votes[3] += 1;
                                        }
                                    }

                                    else {
                                        if (x[134] <= -0.375) {
                                            votes[0] += 1;
                                        }

                                        else {
                                            votes[2] += 1;
                                        }
                                    }
                                }

                                else {
                                    votes[0] += 1;
                                }
                            }

                            else {
                                if (x[173] <= -25.78499937057495) {
                                    if (x[523] <= -0.09000000357627869) {
                                        votes[2] += 1;
                                    }

                                    else {
                                        votes[3] += 1;
                                    }
                                }

                                else {
                                    if (x[234] <= -1.4900000095367432) {
                                        if (x[87] <= -0.35999999195337296) {
                                            votes[0] += 1;
                                        }

                                        else {
                                            votes[3] += 1;
                                        }
                                    }

                                    else {
                                        votes[1] += 1;
                                    }
                                }
                            }
                        }

                        // tree #14
                        if (x[93] <= -0.10500000044703484) {
                            if (x[458] <= -0.7249999940395355) {
                                if (x[257] <= 29.050000190734863) {
                                    if (x[209] <= 11.995000123977661) {
                                        if (x[179] <= -20.540000438690186) {
                                            votes[0] += 1;
                                        }

                                        else {
                                            if (x[183] <= 0.019999999552965164) {
                                                votes[2] += 1;
                                            }

                                            else {
                                                votes[1] += 1;
                                            }
                                        }
                                    }

                                    else {
                                        if (x[55] <= 13.639999389648438) {
                                            votes[3] += 1;
                                        }

                                        else {
                                            votes[2] += 1;
                                        }
                                    }
                                }

                                else {
                                    votes[2] += 1;
                                }
                            }

                            else {
                                if (x[529] <= -53.55999946594238) {
                                    votes[2] += 1;
                                }

                                else {
                                    votes[0] += 1;
                                }
                            }
                        }

                        else {
                            if (x[331] <= 0.06499999947845936) {
                                if (x[626] <= -0.9549999833106995) {
                                    if (x[627] <= -6.014999866485596) {
                                        votes[0] += 1;
                                    }

                                    else {
                                        votes[3] += 1;
                                    }
                                }

                                else {
                                    if (x[167] <= -95.06000137329102) {
                                        votes[0] += 1;
                                    }

                                    else {
                                        if (x[90] <= 5.244999885559082) {
                                            votes[2] += 1;
                                        }

                                        else {
                                            votes[1] += 1;
                                        }
                                    }
                                }
                            }

                            else {
                                if (x[173] <= -4.730000019073486) {
                                    votes[3] += 1;
                                }

                                else {
                                    votes[1] += 1;
                                }
                            }
                        }

                        // tree #15
                        if (x[674] <= -0.11499999836087227) {
                            if (x[37] <= -0.16499999910593033) {
                                if (x[440] <= 12.904999732971191) {
                                    if (x[131] <= 22.369999885559082) {
                                        if (x[226] <= -0.7849999964237213) {
                                            votes[1] += 1;
                                        }

                                        else {
                                            votes[2] += 1;
                                        }
                                    }

                                    else {
                                        votes[0] += 1;
                                    }
                                }

                                else {
                                    votes[0] += 1;
                                }
                            }

                            else {
                                if (x[122] <= -1.0199999809265137) {
                                    if (x[286] <= 21.239999771118164) {
                                        votes[3] += 1;
                                    }

                                    else {
                                        votes[2] += 1;
                                    }
                                }

                                else {
                                    if (x[146] <= 62.834999084472656) {
                                        if (x[75] <= -131.71499824523926) {
                                            votes[2] += 1;
                                        }

                                        else {
                                            votes[1] += 1;
                                        }
                                    }

                                    else {
                                        if (x[636] <= 3.325000047683716) {
                                            votes[2] += 1;
                                        }

                                        else {
                                            votes[0] += 1;
                                        }
                                    }
                                }
                            }
                        }

                        else {
                            if (x[684] <= -5.1600000858306885) {
                                if (x[486] <= -0.7100000083446503) {
                                    votes[1] += 1;
                                }

                                else {
                                    votes[0] += 1;
                                }
                            }

                            else {
                                if (x[281] <= -0.12999999895691872) {
                                    if (x[544] <= -3.170000046491623) {
                                        votes[1] += 1;
                                    }

                                    else {
                                        votes[2] += 1;
                                    }
                                }

                                else {
                                    votes[3] += 1;
                                }
                            }
                        }

                        // tree #16
                        if (x[50] <= 0.10999999940395355) {
                            if (x[667] <= -0.16500000655651093) {
                                votes[2] += 1;
                            }

                            else {
                                if (x[602] <= 1716.5) {
                                    votes[3] += 1;
                                }

                                else {
                                    votes[0] += 1;
                                }
                            }
                        }

                        else {
                            if (x[223] <= 9.704999923706055) {
                                if (x[192] <= -1.10999995470047) {
                                    if (x[105] <= 302.0) {
                                        votes[1] += 1;
                                    }

                                    else {
                                        votes[0] += 1;
                                    }
                                }

                                else {
                                    if (x[324] <= -0.6949999928474426) {
                                        votes[0] += 1;
                                    }

                                    else {
                                        if (x[655] <= 5.184999942779541) {
                                            if (x[284] <= -50.504998207092285) {
                                                votes[3] += 1;
                                            }

                                            else {
                                                votes[1] += 1;
                                            }
                                        }

                                        else {
                                            if (x[521] <= -0.9300000071525574) {
                                                if (x[652] <= -0.08000000286847353) {
                                                    votes[2] += 1;
                                                }

                                                else {
                                                    if (x[125] <= 55.27000117301941) {
                                                        votes[1] += 1;
                                                    }

                                                    else {
                                                        votes[3] += 1;
                                                    }
                                                }
                                            }

                                            else {
                                                votes[0] += 1;
                                            }
                                        }
                                    }
                                }
                            }

                            else {
                                if (x[117] <= 52.64500045776367) {
                                    if (x[229] <= -18.21500015258789) {
                                        votes[3] += 1;
                                    }

                                    else {
                                        if (x[283] <= -1.0950000286102295) {
                                            if (x[462] <= 1335.5) {
                                                votes[2] += 1;
                                            }

                                            else {
                                                votes[0] += 1;
                                            }
                                        }

                                        else {
                                            votes[1] += 1;
                                        }
                                    }
                                }

                                else {
                                    if (x[373] <= -0.5099999904632568) {
                                        if (x[621] <= -2.314999997615814) {
                                            votes[1] += 1;
                                        }

                                        else {
                                            if (x[282] <= 0.055000003427267075) {
                                                votes[3] += 1;
                                            }

                                            else {
                                                votes[0] += 1;
                                            }
                                        }
                                    }

                                    else {
                                        votes[3] += 1;
                                    }
                                }
                            }
                        }

                        // tree #17
                        if (x[36] <= 0.11500000022351742) {
                            if (x[55] <= -3.450000047683716) {
                                if (x[234] <= -0.39499999582767487) {
                                    votes[3] += 1;
                                }

                                else {
                                    votes[0] += 1;
                                }
                            }

                            else {
                                votes[2] += 1;
                            }
                        }

                        else {
                            if (x[202] <= 8.179999828338623) {
                                if (x[331] <= 0.23000000417232513) {
                                    if (x[93] <= -0.20000000298023224) {
                                        if (x[285] <= 55.56999933719635) {
                                            votes[0] += 1;
                                        }

                                        else {
                                            votes[3] += 1;
                                        }
                                    }

                                    else {
                                        if (x[386] <= 0.29500000178813934) {
                                            if (x[185] <= -1.2799999713897705) {
                                                votes[0] += 1;
                                            }

                                            else {
                                                votes[1] += 1;
                                            }
                                        }

                                        else {
                                            if (x[630] <= 1822.5) {
                                                votes[3] += 1;
                                            }

                                            else {
                                                votes[2] += 1;
                                            }
                                        }
                                    }
                                }

                                else {
                                    if (x[283] <= -0.75) {
                                        votes[1] += 1;
                                    }

                                    else {
                                        votes[0] += 1;
                                    }
                                }
                            }

                            else {
                                if (x[307] <= -77.96999740600586) {
                                    if (x[203] <= 585.0) {
                                        if (x[416] <= -0.7700000107288361) {
                                            votes[3] += 1;
                                        }

                                        else {
                                            votes[1] += 1;
                                        }
                                    }

                                    else {
                                        votes[0] += 1;
                                    }
                                }

                                else {
                                    if (x[156] <= -0.7549999952316284) {
                                        votes[1] += 1;
                                    }

                                    else {
                                        votes[3] += 1;
                                    }
                                }
                            }
                        }

                        // tree #18
                        if (x[44] <= -0.1900000050663948) {
                            if (x[43] <= 0.14000000059604645) {
                                votes[2] += 1;
                            }

                            else {
                                if (x[231] <= 695.5) {
                                    if (x[93] <= -0.20000000298023224) {
                                        votes[0] += 1;
                                    }

                                    else {
                                        if (x[137] <= -24.049999237060547) {
                                            votes[0] += 1;
                                        }

                                        else {
                                            votes[1] += 1;
                                        }
                                    }
                                }

                                else {
                                    votes[1] += 1;
                                }
                            }
                        }

                        else {
                            if (x[181] <= 44.25) {
                                if (x[233] <= -0.2750000059604645) {
                                    if (x[648] <= -3.3550000190734863) {
                                        votes[3] += 1;
                                    }

                                    else {
                                        votes[1] += 1;
                                    }
                                }

                                else {
                                    if (x[217] <= 621.5) {
                                        if (x[560] <= 1578.0) {
                                            votes[3] += 1;
                                        }

                                        else {
                                            votes[1] += 1;
                                        }
                                    }

                                    else {
                                        votes[2] += 1;
                                    }
                                }
                            }

                            else {
                                if (x[370] <= 66.64999771118164) {
                                    if (x[6] <= 8.240000128746033) {
                                        votes[3] += 1;
                                    }

                                    else {
                                        votes[1] += 1;
                                    }
                                }

                                else {
                                    if (x[228] <= -39.94499969482422) {
                                        votes[1] += 1;
                                    }

                                    else {
                                        votes[0] += 1;
                                    }
                                }
                            }
                        }

                        // tree #19
                        if (x[202] <= 25.664999961853027) {
                            if (x[292] <= -17.089999675750732) {
                                if (x[93] <= 0.06000000052154064) {
                                    if (x[118] <= -3.4149999618530273) {
                                        if (x[606] <= 10.680000066757202) {
                                            votes[2] += 1;
                                        }

                                        else {
                                            votes[0] += 1;
                                        }
                                    }

                                    else {
                                        votes[0] += 1;
                                    }
                                }

                                else {
                                    if (x[568] <= -0.10499999858438969) {
                                        votes[3] += 1;
                                    }

                                    else {
                                        votes[1] += 1;
                                    }
                                }
                            }

                            else {
                                if (x[78] <= 0.16499999910593033) {
                                    votes[2] += 1;
                                }

                                else {
                                    if (x[79] <= -0.20499999821186066) {
                                        if (x[558] <= 38.60499966144562) {
                                            votes[3] += 1;
                                        }

                                        else {
                                            votes[0] += 1;
                                        }
                                    }

                                    else {
                                        if (x[151] <= -97.07999801635742) {
                                            votes[2] += 1;
                                        }

                                        else {
                                            votes[1] += 1;
                                        }
                                    }
                                }
                            }
                        }

                        else {
                            if (x[433] <= 20.96500015258789) {
                                if (x[286] <= -188.65999603271484) {
                                    if (x[474] <= -1.8600001335144043) {
                                        votes[2] += 1;
                                    }

                                    else {
                                        votes[1] += 1;
                                    }
                                }

                                else {
                                    if (x[274] <= -0.08499999903142452) {
                                        votes[1] += 1;
                                    }

                                    else {
                                        if (x[44] <= -0.19999999552965164) {
                                            votes[2] += 1;
                                        }

                                        else {
                                            votes[3] += 1;
                                        }
                                    }
                                }
                            }

                            else {
                                votes[0] += 1;
                            }
                        }

                        // tree #20
                        if (x[181] <= 42.84499931335449) {
                            if (x[1] <= 0.125) {
                                if (x[635] <= 22.735000371932983) {
                                    votes[2] += 1;
                                }

                                else {
                                    votes[0] += 1;
                                }
                            }

                            else {
                                if (x[44] <= -0.22500000149011612) {
                                    if (x[426] <= -58.69000053405762) {
                                        if (x[252] <= 745.5) {
                                            votes[1] += 1;
                                        }

                                        else {
                                            votes[0] += 1;
                                        }
                                    }

                                    else {
                                        votes[0] += 1;
                                    }
                                }

                                else {
                                    if (x[248] <= -1.1899999976158142) {
                                        if (x[420] <= 1211.5) {
                                            votes[3] += 1;
                                        }

                                        else {
                                            if (x[169] <= 0.04500000178813934) {
                                                votes[2] += 1;
                                            }

                                            else {
                                                if (x[316] <= 0.05499999597668648) {
                                                    votes[0] += 1;
                                                }

                                                else {
                                                    votes[1] += 1;
                                                }
                                            }
                                        }
                                    }

                                    else {
                                        if (x[54] <= 33.5699987411499) {
                                            votes[1] += 1;
                                        }

                                        else {
                                            votes[3] += 1;
                                        }
                                    }
                                }
                            }
                        }

                        else {
                            if (x[9] <= -0.19500000029802322) {
                                votes[0] += 1;
                            }

                            else {
                                if (x[397] <= -5.065000057220459) {
                                    if (x[551] <= 4.335000038146973) {
                                        votes[2] += 1;
                                    }

                                    else {
                                        votes[0] += 1;
                                    }
                                }

                                else {
                                    if (x[230] <= 214.44500732421875) {
                                        votes[3] += 1;
                                    }

                                    else {
                                        votes[1] += 1;
                                    }
                                }
                            }
                        }

                        // tree #21
                        if (x[65] <= -0.17500000447034836) {
                            if (x[64] <= 0.08499999903142452) {
                                if (x[22] <= 0.1449999948963523) {
                                    votes[2] += 1;
                                }

                                else {
                                    votes[3] += 1;
                                }
                            }

                            else {
                                if (x[174] <= 66.19499969482422) {
                                    if (x[450] <= -1.0450000166893005) {
                                        votes[1] += 1;
                                    }

                                    else {
                                        votes[0] += 1;
                                    }
                                }

                                else {
                                    if (x[134] <= 0.28999999910593033) {
                                        votes[3] += 1;
                                    }

                                    else {
                                        votes[0] += 1;
                                    }
                                }
                            }
                        }

                        else {
                            if (x[143] <= -0.9549999833106995) {
                                if (x[86] <= 0.2799999937415123) {
                                    if (x[517] <= 2.744999885559082) {
                                        if (x[555] <= 0.08500000275671482) {
                                            votes[3] += 1;
                                        }

                                        else {
                                            votes[0] += 1;
                                        }
                                    }

                                    else {
                                        if (x[518] <= 1497.5) {
                                            votes[2] += 1;
                                        }

                                        else {
                                            votes[3] += 1;
                                        }
                                    }
                                }

                                else {
                                    votes[1] += 1;
                                }
                            }

                            else {
                                if (x[486] <= -1.4050000309944153) {
                                    votes[3] += 1;
                                }

                                else {
                                    if (x[193] <= -77.11999893188477) {
                                        if (x[487] <= 1.6150000095367432) {
                                            votes[2] += 1;
                                        }

                                        else {
                                            votes[0] += 1;
                                        }
                                    }

                                    else {
                                        votes[1] += 1;
                                    }
                                }
                            }
                        }

                        // return argmax of votes
                        uint8_t classIdx = 0;
                        float maxVotes = votes[0];

                        for (uint8_t i = 1; i < 4; i++) {
                            if (votes[i] > maxVotes) {
                                classIdx = i;
                                maxVotes = votes[i];
                            }
                        }

                        return classIdx;
                    }

                    /**
                    * Predict readable class name
                    */
                    const char* predictLabel(float *x) {
                        return idxToLabel(predict(x));
                    }

                    /**
                    * Convert class idx to readable name
                    */
                    const char* idxToLabel(uint8_t classIdx) {
                        switch (classIdx) {
                            case 0:
                            return "alohomora";
                            case 1:
                            return "avada";
                            case 2:
                            return "lumos";
                            case 3:
                            return "wingardium";
                            default:
                            return "Houston we have a problem";
                        }
                    }

                protected:
                };
            }
        }
    }